<?xml version="1.0"?>
<opencv_storage>
<cascade>
  <stageType>BOOST</stageType>
  <featureType>LBP</featureType>
  <height>40</height>
  <width>80</width>
  <stageParams>
    <boostType>GAB</boostType>
    <minHitRate>9.9900001287460327e-01</minHitRate>
    <maxFalseAlarm>5.0000000000000000e-01</maxFalseAlarm>
    <weightTrimRate>9.4999999999999996e-01</weightTrimRate>
    <maxDepth>1</maxDepth>
    <maxWeakCount>100</maxWeakCount></stageParams>
  <featureParams>
    <maxCatCount>256</maxCatCount>
    <featSize>1</featSize></featureParams>
  <stageNum>20</stageNum>
  <stages>
    <!-- stage 0 -->
    <_>
      <maxWeakCount>1</maxWeakCount>
      <stageThreshold>9.7433364391326904e-01</stageThreshold>
      <weakClassifiers>
        <_>
          <internalNodes>
            0 -1 3 -1862168481 293978399 16777601 -44494397 -989302049
            1226900266 1094296555 2147462127</internalNodes>
          <leafValues>
            -1. 9.7433364391326904e-01</leafValues></_></weakClassifiers></_>
    <!-- stage 1 -->
    <_>
      <maxWeakCount>2</maxWeakCount>
      <stageThreshold>-3.4581694751977921e-02</stageThreshold>
      <weakClassifiers>
        <_>
          <internalNodes>
            0 -1 40 -6308061 -708623533 -1015005177 -142084661
            -1052654369 -775913321 -1048448905 -527425</internalNodes>
          <leafValues>
            -9.3115317821502686e-01 9.2345434427261353e-01</leafValues></_>
        <_>
          <internalNodes>
            0 -1 0 -212385057 -787282917 65607 -209517829 -1038621973
            -225820213 -1019019105 -321793</internalNodes>
          <leafValues>
            -9.5791828632354736e-01 8.9657151699066162e-01</leafValues></_></weakClassifiers></_>
    <!-- stage 2 -->
    <_>
      <maxWeakCount>2</maxWeakCount>
      <stageThreshold>-1.1826463788747787e-01</stageThreshold>
      <weakClassifiers>
        <_>
          <internalNodes>
            0 -1 48 -607258057 -611221306 -1073623017 -648609387
            -1333223255 -931102720 -391578661 -70940025</internalNodes>
          <leafValues>
            -9.3772894144058228e-01 8.6527514457702637e-01</leafValues></_>
        <_>
          <internalNodes>
            0 -1 20 -153100343 28306382 -1048034913 601196595 -21965925
            -1425411889 -73344053 -1429620022</internalNodes>
          <leafValues>
            -9.6256780624389648e-01 8.1946432590484619e-01</leafValues></_></weakClassifiers></_>
    <!-- stage 3 -->
    <_>
      <maxWeakCount>3</maxWeakCount>
      <stageThreshold>-8.8161379098892212e-01</stageThreshold>
      <weakClassifiers>
        <_>
          <internalNodes>
            0 -1 43 -12615745 -135037441 2134900735 2004320247
            -708862529 -134742529 -583025153 -513</internalNodes>
          <leafValues>
            -8.4359401464462280e-01 9.0790790319442749e-01</leafValues></_>
        <_>
          <internalNodes>
            0 -1 35 -523833110 -804421631 86232 -670723891 -1056931192
            -536870912 -1853718344 -74456936</internalNodes>
          <leafValues>
            -8.8257879018783569e-01 8.7322443723678589e-01</leafValues></_>
        <_>
          <internalNodes>
            0 -1 7 -220987425 -444207737 -234581539 1237958651
            -533437635 699032173 -504859681 -153127937</internalNodes>
          <leafValues>
            -8.8117414712905884e-01 8.4455901384353638e-01</leafValues></_></weakClassifiers></_>
    <!-- stage 4 -->
    <_>
      <maxWeakCount>2</maxWeakCount>
      <stageThreshold>-1.0336171090602875e-01</stageThreshold>
      <weakClassifiers>
        <_>
          <internalNodes>
            0 -1 13 -45744129 -78557839 -33503781 -608087984 -32243717
            -122353208 -25104453 -70579493</internalNodes>
          <leafValues>
            -9.5189005136489868e-01 9.3713164329528809e-01</leafValues></_>
        <_>
          <internalNodes>
            0 -1 49 352391583 -720305839 -1853849091 -676002605
            -805293891 -243166840 -788360517 -141127473</internalNodes>
          <leafValues>
            -8.9196771383285522e-01 8.4852832555770874e-01</leafValues></_></weakClassifiers></_>
    <!-- stage 5 -->
    <_>
      <maxWeakCount>3</maxWeakCount>
      <stageThreshold>-1.0462869405746460e+00</stageThreshold>
      <weakClassifiers>
        <_>
          <internalNodes>
            0 -1 23 -415387973 -183269921 16784767 1024791689 -171791361
            -131548757 -8278897 -4473615</internalNodes>
          <leafValues>
            -8.6363637447357178e-01 8.6964982748031616e-01</leafValues></_>
        <_>
          <internalNodes>
            0 -1 34 1406785441 -548348489 1879569279 -48480227
            -773784075 -1149073376 -1511940967 -41699153</internalNodes>
          <leafValues>
            -9.5340800285339355e-01 7.3564988374710083e-01</leafValues></_>
        <_>
          <internalNodes>
            0 -1 10 -178258181 -246955481 1915994378 -511491065
            -238333794 -1417658358 -215066977 -44556</internalNodes>
          <leafValues>
            -8.8925385475158691e-01 7.7075743675231934e-01</leafValues></_></weakClassifiers></_>
    <!-- stage 6 -->
    <_>
      <maxWeakCount>3</maxWeakCount>
      <stageThreshold>-1.1048895120620728e+00</stageThreshold>
      <weakClassifiers>
        <_>
          <internalNodes>
            0 -1 16 -171573289 -359049281 -1017775111 -7733781
            -879762009 -1924812375 -819996197 -53521</internalNodes>
          <leafValues>
            -9.1192662715911865e-01 8.5023695230484009e-01</leafValues></_>
        <_>
          <internalNodes>
            0 -1 14 -173051937 -39848205 -1457575465 -716857067
            -1022727191 -148744064 -550540463 -37263</internalNodes>
          <leafValues>
            -9.0473443269729614e-01 7.9001945257186890e-01</leafValues></_>
        <_>
          <internalNodes>
            0 -1 41 463035183 -3050665 -618792609 -544239145 -1853300321
            -203388735 -553590341 -156767852</internalNodes>
          <leafValues>
            -9.7152459621429443e-01 7.1177148818969727e-01</leafValues></_></weakClassifiers></_>
    <!-- stage 7 -->
    <_>
      <maxWeakCount>3</maxWeakCount>
      <stageThreshold>-9.7369217872619629e-01</stageThreshold>
      <weakClassifiers>
        <_>
          <internalNodes>
            0 -1 44 -183012393 -801570677 1359006621 -573997045
            -1163744269 -125810549 -1172784197 -258759278</internalNodes>
          <leafValues>
            -8.9097744226455688e-01 8.1835204362869263e-01</leafValues></_>
        <_>
          <internalNodes>
            0 -1 45 -140122129 -1190305597 -1056871349 -1933242105
            -734209121 -41565683 -666699077 -1428160513</internalNodes>
          <leafValues>
            -8.6719185113906860e-01 7.7492642402648926e-01</leafValues></_>
        <_>
          <internalNodes>
            0 -1 32 -606208033 -694824337 -2130082533 -555444139
            -253522001 -511604070 -1272596065 -451173105</internalNodes>
          <leafValues>
            -8.4095853567123413e-01 7.8447711467742920e-01</leafValues></_></weakClassifiers></_>
    <!-- stage 8 -->
    <_>
      <maxWeakCount>3</maxWeakCount>
      <stageThreshold>-1.0320947170257568e+00</stageThreshold>
      <weakClassifiers>
        <_>
          <internalNodes>
            0 -1 22 -42469446 -313093995 1616110065 -2047086321
            -526152566 -1593933575 -385642769 -3568965</internalNodes>
          <leafValues>
            -9.0423572063446045e-01 8.4295177459716797e-01</leafValues></_>
        <_>
          <internalNodes>
            0 -1 6 -1576500481 -1473771728 1393628101 -1828220927
            -119489601 -75119443 -368539410 -23164791</internalNodes>
          <leafValues>
            -8.4680467844009399e-01 7.9465484619140625e-01</leafValues></_>
        <_>
          <internalNodes>
            0 -1 28 -820146269 -333458213 -1719269345 -551875499
            -274138113 -729185894 -1894983157 -1261925699</internalNodes>
          <leafValues>
            -9.3689078092575073e-01 7.1894568204879761e-01</leafValues></_></weakClassifiers></_>
    <!-- stage 9 -->
    <_>
      <maxWeakCount>4</maxWeakCount>
      <stageThreshold>-3.2515034079551697e-01</stageThreshold>
      <weakClassifiers>
        <_>
          <internalNodes>
            0 -1 9 -52461569 -801107529 1363277175 -1039306771
            -2000190513 -1937584285 -830223377 -313349</internalNodes>
          <leafValues>
            -9.0322577953338623e-01 7.6811593770980835e-01</leafValues></_>
        <_>
          <internalNodes>
            0 -1 47 2082569663 -757906737 1235151815 986120747
            -1600991841 -1566408638 680444367 -1360004465</internalNodes>
          <leafValues>
            -9.0843534469604492e-01 6.7264312505722046e-01</leafValues></_>
        <_>
          <internalNodes>
            0 -1 4 -859813633 -1089957760 1208512735 -654145272
            -225523269 -1886680181 -1937735013 -38090100</internalNodes>
          <leafValues>
            -8.5663264989852905e-01 7.2812426090240479e-01</leafValues></_>
        <_>
          <internalNodes>
            0 -1 19 -786312281 -120569712 167788933 1079071377
            -871266070 1552262324 -771646586 -276190325</internalNodes>
          <leafValues>
            -7.9356628656387329e-01 7.6206499338150024e-01</leafValues></_></weakClassifiers></_>
    <!-- stage 10 -->
    <_>
      <maxWeakCount>3</maxWeakCount>
      <stageThreshold>-1.0457932949066162e+00</stageThreshold>
      <weakClassifiers>
        <_>
          <internalNodes>
            0 -1 37 -204474377 -754451629 1610680455 -71970297
            -532553525 -1065298942 -1052386677 -35176481</internalNodes>
          <leafValues>
            -8.5608857870101929e-01 8.1663513183593750e-01</leafValues></_>
        <_>
          <internalNodes>
            0 -1 25 790093054 -204237499 -116569698 -16121600 151376091
            -1996382189 -609639969 -546575617</internalNodes>
          <leafValues>
            -8.7756973505020142e-01 7.2528344392776489e-01</leafValues></_>
        <_>
          <internalNodes>
            0 -1 42 -34041 -1761353583 -1970777971 -2087026222
            -320511511 -1610579055 2030403565 -5637909</internalNodes>
          <leafValues>
            -8.6650818586349487e-01 6.8786501884460449e-01</leafValues></_></weakClassifiers></_>
    <!-- stage 11 -->
    <_>
      <maxWeakCount>2</maxWeakCount>
      <stageThreshold>-2.2033289074897766e-01</stageThreshold>
      <weakClassifiers>
        <_>
          <internalNodes>
            0 -1 8 -107786017 -150866985 -1828630368 -43398955
            -2147139345 -359546668 -106407341 -16030761</internalNodes>
          <leafValues>
            -8.8353413343429565e-01 7.6225048303604126e-01</leafValues></_>
        <_>
          <internalNodes>
            0 -1 53 -779357323 -610483573 8819089 -661806909 -770982987
            -1719136199 -584810341 -9119371</internalNodes>
          <leafValues>
            -9.0680068731307983e-01 6.6320127248764038e-01</leafValues></_></weakClassifiers></_>
    <!-- stage 12 -->
    <_>
      <maxWeakCount>3</maxWeakCount>
      <stageThreshold>-8.6547464132308960e-01</stageThreshold>
      <weakClassifiers>
        <_>
          <internalNodes>
            0 -1 2 -744885257 -615853067 1401195085 -241628384
            -572064001 469800169 -268447096 -340035511</internalNodes>
          <leafValues>
            -7.5401067733764648e-01 7.9210782051086426e-01</leafValues></_>
        <_>
          <internalNodes>
            0 -1 29 -36217473 798429552 1628441975 1867450127 -788421211
            -267910998 -1996315765 -72734066</internalNodes>
          <leafValues>
            -8.6581832170486450e-01 7.0532339811325073e-01</leafValues></_>
        <_>
          <internalNodes>
            0 -1 46 -2114597 -56849489 -1912289405 2064536586
            -1056789573 -1675571840 -1960072549 -550511061</internalNodes>
          <leafValues>
            -7.7647215127944946e-01 7.5435435771942139e-01</leafValues></_></weakClassifiers></_>
    <!-- stage 13 -->
    <_>
      <maxWeakCount>2</maxWeakCount>
      <stageThreshold>-2.6580768823623657e-01</stageThreshold>
      <weakClassifiers>
        <_>
          <internalNodes>
            0 -1 12 -1982859267 -1023224927 -1073531695 -796294784
            -1942878993 -894926680 -267814175 -67147147</internalNodes>
          <leafValues>
            -9.0598291158676147e-01 7.2791516780853271e-01</leafValues></_>
        <_>
          <internalNodes>
            0 -1 31 -608174289 -75151237 109644253 -1675951884
            -1316492289 -1587310913 -1598309125 -1212176135</internalNodes>
          <leafValues>
            -9.0959495306015015e-01 6.4017522335052490e-01</leafValues></_></weakClassifiers></_>
    <!-- stage 14 -->
    <_>
      <maxWeakCount>4</maxWeakCount>
      <stageThreshold>-4.4148540496826172e-01</stageThreshold>
      <weakClassifiers>
        <_>
          <internalNodes>
            0 -1 18 -1711605078 -571482896 -1869948078 -39173039
            -674525522 -1682968331 -673673474 -5774116</internalNodes>
          <leafValues>
            -8.7603306770324707e-01 7.3835122585296631e-01</leafValues></_>
        <_>
          <internalNodes>
            0 -1 11 -1967330561 -333282066 -1273425635 -1659840448
            -1902597889 -69629833 -390280977 -1079052118</internalNodes>
          <leafValues>
            -8.1145757436752319e-01 7.0420551300048828e-01</leafValues></_>
        <_>
          <internalNodes>
            0 -1 50 877926556 -673902191 1233195869 -769850967
            1376785146 -82964177 1512229563 -923004227</internalNodes>
          <leafValues>
            -8.2846748828887939e-01 6.4886254072189331e-01</leafValues></_>
        <_>
          <internalNodes>
            0 -1 33 -527762466 -787308541 -784152490 -796866560
            -1073196236 -2130558968 -452889709 -91330037</internalNodes>
          <leafValues>
            -9.1852039098739624e-01 5.9866857528686523e-01</leafValues></_></weakClassifiers></_>
    <!-- stage 15 -->
    <_>
      <maxWeakCount>3</maxWeakCount>
      <stageThreshold>-9.4143092632293701e-01</stageThreshold>
      <weakClassifiers>
        <_>
          <internalNodes>
            0 -1 55 -1851034169 -1490950185 -787355889 -1344945019
            -534935483 -94862628 -384970685 -1073887103</internalNodes>
          <leafValues>
            -8.9495795965194702e-01 7.3487544059753418e-01</leafValues></_>
        <_>
          <internalNodes>
            0 -1 30 -707535277 -248389551 1112703045 -262548541
            -259415853 -1335713719 -1581521925 -82584830</internalNodes>
          <leafValues>
            -7.9971331357955933e-01 6.8902826309204102e-01</leafValues></_>
        <_>
          <internalNodes>
            0 -1 56 -816448043 -216911738 25166087 -72285502 453630965
            -1476361333 1002839038 -103814486</internalNodes>
          <leafValues>
            -7.3550117015838623e-01 7.6531946659088135e-01</leafValues></_></weakClassifiers></_>
    <!-- stage 16 -->
    <_>
      <maxWeakCount>4</maxWeakCount>
      <stageThreshold>-3.4883454442024231e-01</stageThreshold>
      <weakClassifiers>
        <_>
          <internalNodes>
            0 -1 21 -706798465 970731592 -1845448621 -1882781265
            -1937708743 431706251 -804591441 -73601077</internalNodes>
          <leafValues>
            -8.5299807786941528e-01 7.7654665708541870e-01</leafValues></_>
        <_>
          <internalNodes>
            0 -1 38 -39857185 -623620339 -1634399473 733305243 59155855
            -1501159287 -1599668757 -338751073</internalNodes>
          <leafValues>
            -7.3566281795501709e-01 7.6066297292709351e-01</leafValues></_>
        <_>
          <internalNodes>
            0 -1 26 -638190084 2001801476 1548839638 -1143521827
            -249441281 -1204702823 -1634148401 440043675</internalNodes>
          <leafValues>
            -8.8008797168731689e-01 6.2372982501983643e-01</leafValues></_>
        <_>
          <internalNodes>
            0 -1 15 -107614753 59621755 -1325298179 -752930812
            -1593779781 -678262224 -871789610 -1970619512</internalNodes>
          <leafValues>
            -8.8022929430007935e-01 6.2803536653518677e-01</leafValues></_></weakClassifiers></_>
    <!-- stage 17 -->
    <_>
      <maxWeakCount>4</maxWeakCount>
      <stageThreshold>-1.5773903131484985e+00</stageThreshold>
      <weakClassifiers>
        <_>
          <internalNodes>
            0 -1 17 1910257143 -250505093 830526549 -385100475
            -408869547 -146631230 -851435553 -34496519</internalNodes>
          <leafValues>
            -7.6981133222579956e-01 7.5514018535614014e-01</leafValues></_>
        <_>
          <internalNodes>
            0 -1 5 -222626049 1538324720 249756671 -1128235028
            -218103809 -12582913 -118161409 -206283779</internalNodes>
          <leafValues>
            -6.9355297088623047e-01 7.5851875543594360e-01</leafValues></_>
        <_>
          <internalNodes>
            0 -1 39 -1681392673 -102413843 1263133551 1124417605
            -1886707057 -2001138807 -1979610225 -569471195</internalNodes>
          <leafValues>
            -7.4914544820785522e-01 7.2670155763626099e-01</leafValues></_>
        <_>
          <internalNodes>
            0 -1 51 -603098181 -656122911 1110427727 -317451640
            -644904770 -1190690670 -1291068789 -284210965</internalNodes>
          <leafValues>
            -8.4072756767272949e-01 6.1498337984085083e-01</leafValues></_></weakClassifiers></_>
    <!-- stage 18 -->
    <_>
      <maxWeakCount>4</maxWeakCount>
      <stageThreshold>-4.5823830366134644e-01</stageThreshold>
      <weakClassifiers>
        <_>
          <internalNodes>
            0 -1 52 948993528 1302872512 -2038406784 -666810240
            -107945238 -402653182 -1451189334 -5528949</internalNodes>
          <leafValues>
            -8.7423932552337646e-01 7.5067752599716187e-01</leafValues></_>
        <_>
          <internalNodes>
            0 -1 54 -99495717 -191532715 -788523533 -858140157
            -1325184325 -549092989 -234819653 -868814373</internalNodes>
          <leafValues>
            -8.3606123924255371e-01 6.4121794700622559e-01</leafValues></_>
        <_>
          <internalNodes>
            0 -1 27 -6883330 -2310076 -74020035 -1118022392 -343491906
            -610626424 9084559 -863739552</internalNodes>
          <leafValues>
            -8.1127130985260010e-01 6.7082673311233521e-01</leafValues></_>
        <_>
          <internalNodes>
            0 -1 36 285675991 369098753 25166234 -1203679095 -1426015311
            -1937211254 -334976117 -2138758693</internalNodes>
          <leafValues>
            -9.2883425951004028e-01 5.8605444431304932e-01</leafValues></_></weakClassifiers></_>
    <!-- stage 19 -->
    <_>
      <maxWeakCount>2</maxWeakCount>
      <stageThreshold>-2.3494784533977509e-01</stageThreshold>
      <weakClassifiers>
        <_>
          <internalNodes>
            0 -1 24 -270694491 -35802347 -1794866879 -254882657
            -278941865 -846250805 -216511875 -252724408</internalNodes>
          <leafValues>
            -8.2340860366821289e-01 7.1967655420303345e-01</leafValues></_>
        <_>
          <internalNodes>
            0 -1 1 -22887681 -717160438 2030371658 -150880363 136332471
            -1475869941 2123907918 -23381311</internalNodes>
          <leafValues>
            -9.1039365530014038e-01 5.8846080303192139e-01</leafValues></_></weakClassifiers></_></stages>
  <features>
    <_>
      <rect>
        4 3 16 10</rect></_>
    <_>
      <rect>
        9 14 10 6</rect></_>
    <_>
      <rect>
        10 9 21 10</rect></_>
    <_>
      <rect>
        15 12 18 6</rect></_>
    <_>
      <rect>
        16 22 14 5</rect></_>
    <_>
      <rect>
        16 24 13 5</rect></_>
    <_>
      <rect>
        17 21 14 6</rect></_>
    <_>
      <rect>
        18 8 11 7</rect></_>
    <_>
      <rect>
        18 13 5 5</rect></_>
    <_>
      <rect>
        21 0 9 11</rect></_>
    <_>
      <rect>
        21 5 4 10</rect></_>
    <_>
      <rect>
        21 22 13 5</rect></_>
    <_>
      <rect>
        23 8 3 6</rect></_>
    <_>
      <rect>
        24 3 8 10</rect></_>
    <_>
      <rect>
        24 12 2 4</rect></_>
    <_>
      <rect>
        25 18 14 2</rect></_>
    <_>
      <rect>
        26 0 7 12</rect></_>
    <_>
      <rect>
        28 6 6 9</rect></_>
    <_>
      <rect>
        28 13 7 4</rect></_>
    <_>
      <rect>
        28 13 8 4</rect></_>
    <_>
      <rect>
        28 15 14 4</rect></_>
    <_>
      <rect>
        28 19 4 3</rect></_>
    <_>
      <rect>
        29 11 6 5</rect></_>
    <_>
      <rect>
        29 12 6 6</rect></_>
    <_>
      <rect>
        29 15 8 3</rect></_>
    <_>
      <rect>
        29 16 4 3</rect></_>
    <_>
      <rect>
        30 13 6 3</rect></_>
    <_>
      <rect>
        30 26 6 4</rect></_>
    <_>
      <rect>
        31 17 7 2</rect></_>
    <_>
      <rect>
        31 19 3 3</rect></_>
    <_>
      <rect>
        32 1 4 8</rect></_>
    <_>
      <rect>
        34 16 4 2</rect></_>
    <_>
      <rect>
        35 12 4 4</rect></_>
    <_>
      <rect>
        35 16 2 4</rect></_>
    <_>
      <rect>
        35 17 3 2</rect></_>
    <_>
      <rect>
        35 18 2 2</rect></_>
    <_>
      <rect>
        35 19 5 1</rect></_>
    <_>
      <rect>
        36 2 2 10</rect></_>
    <_>
      <rect>
        36 14 3 3</rect></_>
    <_>
      <rect>
        36 14 5 3</rect></_>
    <_>
      <rect>
        36 15 3 3</rect></_>
    <_>
      <rect>
        36 18 3 1</rect></_>
    <_>
      <rect>
        37 16 2 3</rect></_>
    <_>
      <rect>
        37 16 3 2</rect></_>
    <_>
      <rect>
        37 19 3 1</rect></_>
    <_>
      <rect>
        38 7 8 6</rect></_>
    <_>
      <rect>
        38 14 3 3</rect></_>
    <_>
      <rect>
        38 16 2 2</rect></_>
    <_>
      <rect>
        38 17 2 2</rect></_>
    <_>
      <rect>
        38 18 2 1</rect></_>
    <_>
      <rect>
        39 6 4 2</rect></_>
    <_>
      <rect>
        39 16 2 2</rect></_>
    <_>
      <rect>
        39 18 1 1</rect></_>
    <_>
      <rect>
        39 19 1 1</rect></_>
    <_>
      <rect>
        40 10 6 3</rect></_>
    <_>
      <rect>
        41 10 7 7</rect></_>
    <_>
      <rect>
        41 17 2 2</rect></_></features></cascade>
</opencv_storage>
