<?xml version="1.0"?>
<opencv_storage>
<cascade>
  <stageType>BOOST</stageType>
  <featureType>LBP</featureType>
  <height>40</height>
  <width>80</width>
  <stageParams>
    <boostType>GAB</boostType>
    <minHitRate>9.9900001287460327e-01</minHitRate>
    <maxFalseAlarm>5.0000000000000000e-01</maxFalseAlarm>
    <weightTrimRate>9.4999999999999996e-01</weightTrimRate>
    <maxDepth>1</maxDepth>
    <maxWeakCount>100</maxWeakCount></stageParams>
  <featureParams>
    <maxCatCount>256</maxCatCount>
    <featSize>1</featSize></featureParams>
  <stageNum>20</stageNum>
  <stages>
    <!-- stage 0 -->
    <_>
      <maxWeakCount>2</maxWeakCount>
      <stageThreshold>-1.1648388952016830e-01</stageThreshold>
      <weakClassifiers>
        <_>
          <internalNodes>
            0 -1 33 1363642031 1346495555 65537 1075536143 33784335
            134848519 9011343 1607463679</internalNodes>
          <leafValues>
            -9.7569441795349121e-01 9.3945312500000000e-01</leafValues></_>
        <_>
          <internalNodes>
            0 -1 37 -1870009682 9603714 272736771 1745850379 -775585333
            570662945 -1597791573 2147474095</internalNodes>
          <leafValues>
            -9.7942447662353516e-01 8.5921055078506470e-01</leafValues></_></weakClassifiers></_>
    <!-- stage 1 -->
    <_>
      <maxWeakCount>3</maxWeakCount>
      <stageThreshold>-1.0907138586044312e+00</stageThreshold>
      <weakClassifiers>
        <_>
          <internalNodes>
            0 -1 25 -671614465 -585248721 -750681317 -3161859 -619455249
            306258826 -620522021 1610350527</internalNodes>
          <leafValues>
            -9.2481201887130737e-01 8.3520597219467163e-01</leafValues></_>
        <_>
          <internalNodes>
            0 -1 8 -255530249 -774664123 536887938 -233816023 1343226079
            -1591640055 1616925359 -4195409</internalNodes>
          <leafValues>
            -9.0332037210464478e-01 7.1553397178649902e-01</leafValues></_>
        <_>
          <internalNodes>
            0 -1 42 1048971487 -774614200 -1342001079 -18558695
            -788015329 -882503161 629339343 -16843841</internalNodes>
          <leafValues>
            -8.7068730592727661e-01 7.3741847276687622e-01</leafValues></_></weakClassifiers></_>
    <!-- stage 2 -->
    <_>
      <maxWeakCount>3</maxWeakCount>
      <stageThreshold>-1.0604138374328613e+00</stageThreshold>
      <weakClassifiers>
        <_>
          <internalNodes>
            0 -1 19 -571359745 -141209389 -16757729 -572178145
            -1290223617 2006638816 -1156654181 2006948527</internalNodes>
          <leafValues>
            -9.4672131538391113e-01 7.7517986297607422e-01</leafValues></_>
        <_>
          <internalNodes>
            0 -1 12 -220868373 -929763133 1629487127 -1019527165
            -2130526037 -1065205629 -1031618053 -1084813</internalNodes>
          <leafValues>
            -8.4153133630752563e-01 7.6068925857543945e-01</leafValues></_>
        <_>
          <internalNodes>
            0 -1 54 1028882425 589103201 1476461592 -1339102 -2086014404
            -1952275800 -1996445016 -270625</internalNodes>
          <leafValues>
            -8.0195909738540649e-01 7.2783881425857544e-01</leafValues></_></weakClassifiers></_>
    <!-- stage 3 -->
    <_>
      <maxWeakCount>5</maxWeakCount>
      <stageThreshold>-9.8275899887084961e-01</stageThreshold>
      <weakClassifiers>
        <_>
          <internalNodes>
            0 -1 29 -84010753 -790243993 -1 -1 644898815 1843419907
            -96468993 -69206017</internalNodes>
          <leafValues>
            -8.1657850742340088e-01 8.3543080091476440e-01</leafValues></_>
        <_>
          <internalNodes>
            0 -1 75 -274730072 -1845321306 1099142541 -1456244465
            -248528423 -632647038 -347080681 -1073741865</internalNodes>
          <leafValues>
            -8.6680603027343750e-01 7.1078795194625854e-01</leafValues></_>
        <_>
          <internalNodes>
            0 -1 65 -1144834561 -786628459 268517867 -778567550
            847380641 -1476362110 -2088566104 -74792296</internalNodes>
          <leafValues>
            -9.1307556629180908e-01 6.6345983743667603e-01</leafValues></_>
        <_>
          <internalNodes>
            0 -1 74 -1866849576 -780140536 1073823761 -787136512
            -2113896430 33685504 -2147446094 -166055808</internalNodes>
          <leafValues>
            -7.4108225107192993e-01 7.9770350456237793e-01</leafValues></_>
        <_>
          <internalNodes>
            0 -1 6 -779820361 -1073594301 268443713 1887995965
            -1056849233 -1067388781 -1040158173 -67473361</internalNodes>
          <leafValues>
            -8.3156210184097290e-01 7.7824789285659790e-01</leafValues></_></weakClassifiers></_>
    <!-- stage 4 -->
    <_>
      <maxWeakCount>4</maxWeakCount>
      <stageThreshold>-4.6759715676307678e-01</stageThreshold>
      <weakClassifiers>
        <_>
          <internalNodes>
            0 -1 63 -1574825218 -687276032 1879167040 1428094976
            -1568623990 -536870912 -1862238056 -74743670</internalNodes>
          <leafValues>
            -8.9733058214187622e-01 7.5202155113220215e-01</leafValues></_>
        <_>
          <internalNodes>
            0 -1 51 -787353096 -776879931 1363169626 1565066328
            -1191145285 1921032320 1914223530 531335354</internalNodes>
          <leafValues>
            -9.1860306262969971e-01 6.0814917087554932e-01</leafValues></_>
        <_>
          <internalNodes>
            0 -1 14 -758780929 -1018961582 -556494291 -672196589
            33556595 -1500888952 1927571931 -85144701</internalNodes>
          <leafValues>
            -8.2577151060104370e-01 6.4639163017272949e-01</leafValues></_>
        <_>
          <internalNodes>
            0 -1 24 -657143585 -711983035 -1064533803 269303960
            1628032697 689963009 -1627272997 -90560375</internalNodes>
          <leafValues>
            -7.8905147314071655e-01 7.0194488763809204e-01</leafValues></_></weakClassifiers></_>
    <!-- stage 5 -->
    <_>
      <maxWeakCount>4</maxWeakCount>
      <stageThreshold>-4.7484499216079712e-01</stageThreshold>
      <weakClassifiers>
        <_>
          <internalNodes>
            0 -1 21 -61800457 -3816175 -805252725 -258916147 -1164934981
            -786069346 -1595878465 2016493999</internalNodes>
          <leafValues>
            -8.9177489280700684e-01 7.1353250741958618e-01</leafValues></_>
        <_>
          <internalNodes>
            0 -1 52 49807615 -37365677 -1828243137 -241101295
            -1170107233 -275588984 -1425493861 -16023422</internalNodes>
          <leafValues>
            -8.5349506139755249e-01 6.2961059808731079e-01</leafValues></_>
        <_>
          <internalNodes>
            0 -1 78 -472908303 -1415921648 -662308451 -1688614594
            -654269703 -131481432 -1064797923 -70466887</internalNodes>
          <leafValues>
            -7.8373599052429199e-01 6.4911973476409912e-01</leafValues></_>
        <_>
          <internalNodes>
            0 -1 45 -620695430 -728690287 -2129653424 1534099648
            -679436133 -726462336 -2013087016 492351875</internalNodes>
          <leafValues>
            -8.6766952276229858e-01 6.2130522727966309e-01</leafValues></_></weakClassifiers></_>
    <!-- stage 6 -->
    <_>
      <maxWeakCount>4</maxWeakCount>
      <stageThreshold>-3.5184189677238464e-01</stageThreshold>
      <weakClassifiers>
        <_>
          <internalNodes>
            0 -1 53 -19264258 -103152265 290405301 -552476645 -652346216
            -82673620 562632835 -5516337</internalNodes>
          <leafValues>
            -8.6965376138687134e-01 7.4571686983108521e-01</leafValues></_>
        <_>
          <internalNodes>
            0 -1 16 -266538761 -778493867 -1048243753 -585314025
            -1339508497 -1199470422 -611787802 -548716537</internalNodes>
          <leafValues>
            -7.8821426630020142e-01 7.0340645313262939e-01</leafValues></_>
        <_>
          <internalNodes>
            0 -1 71 473486847 -610769348 294689021 -145975103
            -1826567942 -1695940182 -1476343570 -1912045416</internalNodes>
          <leafValues>
            -7.4016183614730835e-01 6.8094885349273682e-01</leafValues></_>
        <_>
          <internalNodes>
            0 -1 27 -187379969 -1726795297 407081439 -1828507637
            1891910655 981534874 -1435468865 -29280103</internalNodes>
          <leafValues>
            -8.1295537948608398e-01 6.2507730722427368e-01</leafValues></_></weakClassifiers></_>
    <!-- stage 7 -->
    <_>
      <maxWeakCount>2</maxWeakCount>
      <stageThreshold>-2.1092215180397034e-01</stageThreshold>
      <weakClassifiers>
        <_>
          <internalNodes>
            0 -1 65 969095677 -539271057 -448652070 -8364278 428954068
            -205200215 -100921688 -16804952</internalNodes>
          <leafValues>
            -9.2393738031387329e-01 7.0511710643768311e-01</leafValues></_>
        <_>
          <internalNodes>
            0 -1 40 -717138617 -581867695 -775887909 -553266175
            -997350691 -38633083 -762723635 -934305082</internalNodes>
          <leafValues>
            -7.3373639583587646e-01 7.1301519870758057e-01</leafValues></_></weakClassifiers></_>
    <!-- stage 8 -->
    <_>
      <maxWeakCount>4</maxWeakCount>
      <stageThreshold>-3.5689109563827515e-01</stageThreshold>
      <weakClassifiers>
        <_>
          <internalNodes>
            0 -1 36 -2099884289 -1027723 290791801 2099336457
            -1087134773 -23280750 50350635 800931989</internalNodes>
          <leafValues>
            -8.5652172565460205e-01 6.9649124145507812e-01</leafValues></_>
        <_>
          <internalNodes>
            0 -1 39 435838687 -549662226 -259738755 -252123427
            -1282924421 -119815999 -40185206 -1467422056</internalNodes>
          <leafValues>
            -7.7608484029769897e-01 6.3906276226043701e-01</leafValues></_>
        <_>
          <internalNodes>
            0 -1 34 -41885776 -1974370083 -1777745389 -152186408
            -391544001 -728858557 -1296049217 -1093323</internalNodes>
          <leafValues>
            -8.1718075275421143e-01 5.8708727359771729e-01</leafValues></_>
        <_>
          <internalNodes>
            0 -1 69 932469245 -1151844102 -1862254373 -94715866
            -669875110 -2096561983 -1186950465 -1110640468</internalNodes>
          <leafValues>
            -7.2651940584182739e-01 6.9028592109680176e-01</leafValues></_></weakClassifiers></_>
    <!-- stage 9 -->
    <_>
      <maxWeakCount>5</maxWeakCount>
      <stageThreshold>-1.1324223279953003e+00</stageThreshold>
      <weakClassifiers>
        <_>
          <internalNodes>
            0 -1 4 -217975401 -540471239 -854484497 261169152 -293491781
            914883153 -897532964 1185655960</internalNodes>
          <leafValues>
            -8.8118809461593628e-01 6.3210701942443848e-01</leafValues></_>
        <_>
          <internalNodes>
            0 -1 31 -990451489 -1613194659 307843223 818499849
            -670463493 -620625887 -888945784 -1462721263</internalNodes>
          <leafValues>
            -7.5185132026672363e-01 5.7383871078491211e-01</leafValues></_>
        <_>
          <internalNodes>
            0 -1 5 -71046418 -362296446 614137930 -1191800442 119778231
            -1870421886 67369147 -171445298</internalNodes>
          <leafValues>
            -6.8358445167541504e-01 6.3022696971893311e-01</leafValues></_>
        <_>
          <internalNodes>
            0 -1 43 -1874071315 -704407465 -880606423 -148547325
            -519987191 -376897280 -2119857719 25749775</internalNodes>
          <leafValues>
            -8.5575944185256958e-01 5.1135051250457764e-01</leafValues></_>
        <_>
          <internalNodes>
            0 -1 41 -19508995 -673130344 -2096088727 1497710593
            -268191473 -886046520 -762307935 -1199027184</internalNodes>
          <leafValues>
            -6.7083400487899780e-01 6.7285114526748657e-01</leafValues></_></weakClassifiers></_>
    <!-- stage 10 -->
    <_>
      <maxWeakCount>5</maxWeakCount>
      <stageThreshold>-1.0769791603088379e+00</stageThreshold>
      <weakClassifiers>
        <_>
          <internalNodes>
            0 -1 57 -1128637186 -721033661 -1672929315 -263177359
            -1795041954 -134125568 722011349 -39080753</internalNodes>
          <leafValues>
            -8.4503632783889771e-01 6.3100254535675049e-01</leafValues></_>
        <_>
          <internalNodes>
            0 -1 9 1359213034 -753577534 168440896 -1287648500
            -2134246965 1126232450 47338 -12845606</internalNodes>
          <leafValues>
            -6.4143627882003784e-01 6.6514945030212402e-01</leafValues></_>
        <_>
          <internalNodes>
            0 -1 61 -680200764 1334517844 1107382555 -6950909 524345787
            2006298810 973093643 -105877061</internalNodes>
          <leafValues>
            -6.9669359922409058e-01 6.3211059570312500e-01</leafValues></_>
        <_>
          <internalNodes>
            0 -1 73 -73673736 290643368 -449125164 -1619028891
            -2013036416 -2004877264 -536829407 -911375231</internalNodes>
          <leafValues>
            -7.7593165636062622e-01 5.8640694618225098e-01</leafValues></_>
        <_>
          <internalNodes>
            0 -1 26 -1484139829 -117108446 134529160 -1727270823
            -1899346786 -931100478 -360023181 -134527590</internalNodes>
          <leafValues>
            -7.3547011613845825e-01 5.7553297281265259e-01</leafValues></_></weakClassifiers></_>
    <!-- stage 11 -->
    <_>
      <maxWeakCount>4</maxWeakCount>
      <stageThreshold>-1.7220301628112793e+00</stageThreshold>
      <weakClassifiers>
        <_>
          <internalNodes>
            0 -1 20 -799552849 -7237305 -33448637 -12533495 1555582793
            -12355512 2065421240 2143889096</internalNodes>
          <leafValues>
            -8.6764705181121826e-01 6.3255035877227783e-01</leafValues></_>
        <_>
          <internalNodes>
            0 -1 77 -748688084 -1152204498 1093747014 -1269137126
            -2106797093 -1455371692 1363470467 -1073753346</internalNodes>
          <leafValues>
            -8.4312903881072998e-01 5.0733613967895508e-01</leafValues></_>
        <_>
          <internalNodes>
            0 -1 15 -538969377 1326415900 1121206704 -778227445
            950061199 -2087780312 1621131243 -73484087</internalNodes>
          <leafValues>
            -7.5073194503784180e-01 5.6226819753646851e-01</leafValues></_>
        <_>
          <internalNodes>
            0 -1 0 -27622697 -737489787 -434550767 -1123876461
            -1894069249 -213876692 -369021953 1957036459</internalNodes>
          <leafValues>
            -7.6071947813034058e-01 6.0935038328170776e-01</leafValues></_></weakClassifiers></_>
    <!-- stage 12 -->
    <_>
      <maxWeakCount>5</maxWeakCount>
      <stageThreshold>-1.0715937614440918e+00</stageThreshold>
      <weakClassifiers>
        <_>
          <internalNodes>
            0 -1 62 -111411244 1543865493 1628035140 -582631348
            1153563365 1611661322 1636987836 201034709</internalNodes>
          <leafValues>
            -9.3121695518493652e-01 6.1538463830947876e-01</leafValues></_>
        <_>
          <internalNodes>
            0 -1 38 -1535700129 -212535295 -264175360 -1584173054
            -536830781 -1439660031 -512217088 -1075743104</internalNodes>
          <leafValues>
            -6.6879659891128540e-01 6.1985927820205688e-01</leafValues></_>
        <_>
          <internalNodes>
            0 -1 48 -77839927 -242138993 -1610503933 1597378707
            -1878937385 -100138860 -83778937 -2132803881</internalNodes>
          <leafValues>
            -7.1402162313461304e-01 5.4511040449142456e-01</leafValues></_>
        <_>
          <internalNodes>
            0 -1 17 1348257015 -15204203 4261779 816125451 -427308033
            -1162542967 -2086663799 -124499964</internalNodes>
          <leafValues>
            -7.1332645416259766e-01 5.9508353471755981e-01</leafValues></_>
        <_>
          <internalNodes>
            0 -1 7 -1759137761 2099563735 524468416 -2091785577
            -1574395253 -2102874968 1258309235 -873724349</internalNodes>
          <leafValues>
            -8.9924371242523193e-01 4.1535174846649170e-01</leafValues></_></weakClassifiers></_>
    <!-- stage 13 -->
    <_>
      <maxWeakCount>4</maxWeakCount>
      <stageThreshold>-2.8734430670738220e-01</stageThreshold>
      <weakClassifiers>
        <_>
          <internalNodes>
            0 -1 46 -1241754378 -552280612 -1811858359 689183940
            -200792696 -790069230 -1995850485 253603214</internalNodes>
          <leafValues>
            -8.5051548480987549e-01 6.0231024026870728e-01</leafValues></_>
        <_>
          <internalNodes>
            0 -1 79 -537133067 -1111976912 -943156068 -1924543415
            -2117935312 -255156030 -800741115 -607405339</internalNodes>
          <leafValues>
            -7.0496106147766113e-01 5.8003574609756470e-01</leafValues></_>
        <_>
          <internalNodes>
            0 -1 2 -96807233 -170912946 -1727982592 -667672172
            -1164905793 1936296873 306980999 -173298786</internalNodes>
          <leafValues>
            -6.2890732288360596e-01 6.6008418798446655e-01</leafValues></_>
        <_>
          <internalNodes>
            0 -1 55 -797910972 605898069 71764763 -251330223 -259856193
            1486946997 419492763 -340216771</internalNodes>
          <leafValues>
            -6.7421334981918335e-01 6.1204272508621216e-01</leafValues></_></weakClassifiers></_>
    <!-- stage 14 -->
    <_>
      <maxWeakCount>4</maxWeakCount>
      <stageThreshold>-1.5042809247970581e+00</stageThreshold>
      <weakClassifiers>
        <_>
          <internalNodes>
            0 -1 49 190783359 -2030762555 -1865214699 -116060139
            -1576953463 -896456191 -469068716 -931122621</internalNodes>
          <leafValues>
            -7.0833331346511841e-01 6.6071426868438721e-01</leafValues></_>
        <_>
          <internalNodes>
            0 -1 64 1372319701 -158244464 -266256127 -468506462
            236142688 -1340570623 -1828094974 -1277220066</internalNodes>
          <leafValues>
            -7.4132943153381348e-01 5.7008796930313110e-01</leafValues></_>
        <_>
          <internalNodes>
            0 -1 66 1498215421 -34829600 -1773964421 -16051383
            -1274703673 -1593671637 -770260292 -1633097540</internalNodes>
          <leafValues>
            -7.2783929109573364e-01 5.6518185138702393e-01</leafValues></_>
        <_>
          <internalNodes>
            0 -1 72 -179110705 -754728957 34607393 -1035775977
            -1825534975 -577662920 -1830186976 -1702260095</internalNodes>
          <leafValues>
            -6.9582647085189819e-01 6.2689357995986938e-01</leafValues></_></weakClassifiers></_>
    <!-- stage 15 -->
    <_>
      <maxWeakCount>4</maxWeakCount>
      <stageThreshold>-5.8031833171844482e-01</stageThreshold>
      <weakClassifiers>
        <_>
          <internalNodes>
            0 -1 18 -4984673 -1373900773 -1027602108 -577781243
            551553279 -23879254 813714405 -13746551</internalNodes>
          <leafValues>
            -7.4944072961807251e-01 6.3746750354766846e-01</leafValues></_>
        <_>
          <internalNodes>
            0 -1 50 -187148952 -1869078067 428971408 -706787107
            -1597974085 -370630207 -612348101 -350175099</internalNodes>
          <leafValues>
            -7.3895561695098877e-01 5.2837854623794556e-01</leafValues></_>
        <_>
          <internalNodes>
            0 -1 22 -1240293163 -396840183 1006698769 -981212152
            1891916255 1856518921 -266106225 -7624031</internalNodes>
          <leafValues>
            -8.7603962421417236e-01 4.5008337497711182e-01</leafValues></_>
        <_>
          <internalNodes>
            0 -1 70 1362164669 1560383896 1006734257 -116293443
            -1324338768 -2055176062 1242206364 -1904702312</internalNodes>
          <leafValues>
            -7.4086254835128784e-01 5.1678341627120972e-01</leafValues></_></weakClassifiers></_>
    <!-- stage 16 -->
    <_>
      <maxWeakCount>4</maxWeakCount>
      <stageThreshold>-5.2795261144638062e-01</stageThreshold>
      <weakClassifiers>
        <_>
          <internalNodes>
            0 -1 59 940461276 -242818856 -452718269 -736870383
            -2137882886 -909564800 772309741 1355365595</internalNodes>
          <leafValues>
            -8.5245901346206665e-01 5.7698541879653931e-01</leafValues></_>
        <_>
          <internalNodes>
            0 -1 30 1557974719 -840062917 -670464765 583861543
            2080357071 -6289303 -1949745147 -367247223</internalNodes>
          <leafValues>
            -7.0721137523651123e-01 5.4599088430404663e-01</leafValues></_>
        <_>
          <internalNodes>
            0 -1 3 1583403727 2042822660 -1657687747 1120567818
            1381470687 -930414590 315542019 -4751333</internalNodes>
          <leafValues>
            -6.5167152881622314e-01 5.8131140470504761e-01</leafValues></_>
        <_>
          <internalNodes>
            0 -1 35 -1093511585 -1257176399 406143061 -577466336
            -626360471 2063671848 -1643988303 864174608</internalNodes>
          <leafValues>
            -8.0279588699340820e-01 5.0207293033599854e-01</leafValues></_></weakClassifiers></_>
    <!-- stage 17 -->
    <_>
      <maxWeakCount>6</maxWeakCount>
      <stageThreshold>-7.1567153930664062e-01</stageThreshold>
      <weakClassifiers>
        <_>
          <internalNodes>
            0 -1 56 -782903824 -240660459 -1608441448 -169017255
            973192129 1091211441 1317080539 448786895</internalNodes>
          <leafValues>
            -8.4573000669479370e-01 5.7154405117034912e-01</leafValues></_>
        <_>
          <internalNodes>
            0 -1 10 -1824066144 1241515048 -786287921 -578513152
            -2146905178 629269035 -746271157 -4719478</internalNodes>
          <leafValues>
            -7.5052458047866821e-01 4.9924883246421814e-01</leafValues></_>
        <_>
          <internalNodes>
            0 -1 28 1492420319 2122061076 1610944521 613353513 144566494
            -345964368 -1451163118 -1164046141</internalNodes>
          <leafValues>
            -6.5788811445236206e-01 6.0895889997482300e-01</leafValues></_>
        <_>
          <internalNodes>
            0 -1 60 2097298263 92946565 203073 -626958277 1744999319
            570573067 1208656019 1918513411</internalNodes>
          <leafValues>
            -8.8655710220336914e-01 3.9207470417022705e-01</leafValues></_>
        <_>
          <internalNodes>
            0 -1 68 -1290241 -207388463 -1073689467 -653737468
            -2109557853 411209730 -876469616 -859282394</internalNodes>
          <leafValues>
            -6.8312621116638184e-01 5.4354512691497803e-01</leafValues></_>
        <_>
          <internalNodes>
            0 -1 1 176505087 -1534393696 -1038020454 1300568529
            -735854005 1449595506 -1711238714 -665343247</internalNodes>
          <leafValues>
            -6.4692211151123047e-01 6.1717557907104492e-01</leafValues></_></weakClassifiers></_>
    <!-- stage 18 -->
    <_>
      <maxWeakCount>5</maxWeakCount>
      <stageThreshold>-1.0651707649230957e+00</stageThreshold>
      <weakClassifiers>
        <_>
          <internalNodes>
            0 -1 58 -718154273 51698137 1350588444 466387776 -268178977
            9486526 1762207998 885311193</internalNodes>
          <leafValues>
            -9.2727273702621460e-01 5.5590552091598511e-01</leafValues></_>
        <_>
          <internalNodes>
            0 -1 11 -1319118637 -1822318061 -750769145 -710148157
            -2095933297 730016143 -544554353 -111451565</internalNodes>
          <leafValues>
            -7.0511823892593384e-01 5.6786799430847168e-01</leafValues></_>
        <_>
          <internalNodes>
            0 -1 23 -748183298 7405834 145035649 -1291976448 -2104049443
            1494515714 -1431807279 -96673235</internalNodes>
          <leafValues>
            -6.3405412435531616e-01 6.1755228042602539e-01</leafValues></_>
        <_>
          <internalNodes>
            0 -1 76 -1853556737 -577879724 289483133 -208579695
            -910034761 -133971830 -804085208 -1934820512</internalNodes>
          <leafValues>
            -6.7477560043334961e-01 5.5640840530395508e-01</leafValues></_>
        <_>
          <internalNodes>
            0 -1 44 -1286533545 1628005379 1360249089 -1064835002
            -1374837961 -1509830077 -360586685 151883275</internalNodes>
          <leafValues>
            -8.3831226825714111e-01 4.3488413095474243e-01</leafValues></_></weakClassifiers></_>
    <!-- stage 19 -->
    <_>
      <maxWeakCount>4</maxWeakCount>
      <stageThreshold>-3.7152051925659180e-01</stageThreshold>
      <weakClassifiers>
        <_>
          <internalNodes>
            0 -1 67 25451772 -1187839532 1360672789 -592643452
            -1039639926 -1727936365 -1675054949 -1668790044</internalNodes>
          <leafValues>
            -7.7157360315322876e-01 5.8374792337417603e-01</leafValues></_>
        <_>
          <internalNodes>
            0 -1 32 -820784918 1159127840 -2127326880 -298522128
            -459128577 -936869747 -1035436425 -1288972</internalNodes>
          <leafValues>
            -7.7324247360229492e-01 4.5885422825813293e-01</leafValues></_>
        <_>
          <internalNodes>
            0 -1 13 118139635 126537698 787476416 -1343291424 -806432786
            1067114374 2111673855 -306319394</internalNodes>
          <leafValues>
            -5.9881573915481567e-01 6.2250417470932007e-01</leafValues></_>
        <_>
          <internalNodes>
            0 -1 47 -207685124 -1862025025 -1006239609 -1597190695
            1612193792 -1039951870 201331841 -203898513</internalNodes>
          <leafValues>
            -6.7760807275772095e-01 5.5079138278961182e-01</leafValues></_></weakClassifiers></_></stages>
  <features>
    <_>
      <rect>
        1 2 18 11</rect></_>
    <_>
      <rect>
        3 0 11 7</rect></_>
    <_>
      <rect>
        4 16 20 8</rect></_>
    <_>
      <rect>
        6 15 15 8</rect></_>
    <_>
      <rect>
        8 13 18 4</rect></_>
    <_>
      <rect>
        13 10 8 7</rect></_>
    <_>
      <rect>
        14 9 11 6</rect></_>
    <_>
      <rect>
        15 11 11 4</rect></_>
    <_>
      <rect>
        15 15 10 5</rect></_>
    <_>
      <rect>
        17 10 6 8</rect></_>
    <_>
      <rect>
        18 4 5 9</rect></_>
    <_>
      <rect>
        19 1 10 8</rect></_>
    <_>
      <rect>
        19 2 9 9</rect></_>
    <_>
      <rect>
        20 6 6 3</rect></_>
    <_>
      <rect>
        20 11 8 8</rect></_>
    <_>
      <rect>
        20 14 7 6</rect></_>
    <_>
      <rect>
        21 6 9 6</rect></_>
    <_>
      <rect>
        21 22 10 3</rect></_>
    <_>
      <rect>
        22 14 6 6</rect></_>
    <_>
      <rect>
        22 16 12 2</rect></_>
    <_>
      <rect>
        22 17 8 3</rect></_>
    <_>
      <rect>
        23 3 8 11</rect></_>
    <_>
      <rect>
        23 11 11 8</rect></_>
    <_>
      <rect>
        23 14 4 6</rect></_>
    <_>
      <rect>
        23 21 8 3</rect></_>
    <_>
      <rect>
        24 13 11 4</rect></_>
    <_>
      <rect>
        24 15 4 3</rect></_>
    <_>
      <rect>
        24 17 6 4</rect></_>
    <_>
      <rect>
        24 21 6 3</rect></_>
    <_>
      <rect>
        25 11 9 8</rect></_>
    <_>
      <rect>
        25 20 6 4</rect></_>
    <_>
      <rect>
        25 22 9 4</rect></_>
    <_>
      <rect>
        26 13 3 4</rect></_>
    <_>
      <rect>
        27 4 10 8</rect></_>
    <_>
      <rect>
        28 5 3 6</rect></_>
    <_>
      <rect>
        28 19 5 2</rect></_>
    <_>
      <rect>
        29 16 7 4</rect></_>
    <_>
      <rect>
        30 12 10 7</rect></_>
    <_>
      <rect>
        31 11 6 7</rect></_>
    <_>
      <rect>
        31 22 4 3</rect></_>
    <_>
      <rect>
        32 4 11 6</rect></_>
    <_>
      <rect>
        32 19 5 2</rect></_>
    <_>
      <rect>
        32 20 4 3</rect></_>
    <_>
      <rect>
        33 8 6 4</rect></_>
    <_>
      <rect>
        33 9 3 7</rect></_>
    <_>
      <rect>
        33 16 4 2</rect></_>
    <_>
      <rect>
        33 17 5 3</rect></_>
    <_>
      <rect>
        33 19 4 7</rect></_>
    <_>
      <rect>
        34 5 9 5</rect></_>
    <_>
      <rect>
        34 13 4 5</rect></_>
    <_>
      <rect>
        34 14 3 2</rect></_>
    <_>
      <rect>
        34 16 4 2</rect></_>
    <_>
      <rect>
        34 16 4 3</rect></_>
    <_>
      <rect>
        34 17 3 4</rect></_>
    <_>
      <rect>
        34 17 4 2</rect></_>
    <_>
      <rect>
        35 14 3 2</rect></_>
    <_>
      <rect>
        35 15 4 2</rect></_>
    <_>
      <rect>
        35 17 3 3</rect></_>
    <_>
      <rect>
        35 18 4 1</rect></_>
    <_>
      <rect>
        35 18 4 2</rect></_>
    <_>
      <rect>
        36 4 3 11</rect></_>
    <_>
      <rect>
        36 14 3 2</rect></_>
    <_>
      <rect>
        36 16 3 2</rect></_>
    <_>
      <rect>
        36 18 2 2</rect></_>
    <_>
      <rect>
        37 15 2 3</rect></_>
    <_>
      <rect>
        37 17 2 2</rect></_>
    <_>
      <rect>
        37 20 7 6</rect></_>
    <_>
      <rect>
        37 24 4 2</rect></_>
    <_>
      <rect>
        38 20 2 2</rect></_>
    <_>
      <rect>
        38 23 3 2</rect></_>
    <_>
      <rect>
        38 23 7 3</rect></_>
    <_>
      <rect>
        38 24 7 4</rect></_>
    <_>
      <rect>
        39 8 7 4</rect></_>
    <_>
      <rect>
        39 18 8 4</rect></_>
    <_>
      <rect>
        40 19 1 1</rect></_>
    <_>
      <rect>
        42 11 5 6</rect></_>
    <_>
      <rect>
        42 25 6 5</rect></_>
    <_>
      <rect>
        43 4 4 10</rect></_>
    <_>
      <rect>
        43 15 6 5</rect></_>
    <_>
      <rect>
        45 15 5 5</rect></_></features></cascade>
</opencv_storage>
