<?xml version="1.0"?>
<opencv_storage>
<stage19>
  <maxWeakCount>4</maxWeakCount>
  <stageThreshold>-3.7152051925659180e-01</stageThreshold>
  <weakClassifiers>
    <_>
      <internalNodes>
        0 -1 198616 25451772 -1187839532 1360672789 -592643452
        -1039639926 -1727936365 -1675054949 -1668790044</internalNodes>
      <leafValues>
        -7.7157360315322876e-01 5.8374792337417603e-01</leafValues></_>
    <_>
      <internalNodes>
        0 -1 152355 -820784918 1159127840 -2127326880 -298522128
        -459128577 -936869747 -1035436425 -1288972</internalNodes>
      <leafValues>
        -7.7324247360229492e-01 4.5885422825813293e-01</leafValues></_>
    <_>
      <internalNodes>
        0 -1 121897 118139635 126537698 787476416 -1343291424 -806432786
        1067114374 2111673855 -306319394</internalNodes>
      <leafValues>
        -5.9881573915481567e-01 6.2250417470932007e-01</leafValues></_>
    <_>
      <internalNodes>
        0 -1 183057 -207685124 -1862025025 -1006239609 -1597190695
        1612193792 -1039951870 201331841 -203898513</internalNodes>
      <leafValues>
        -6.7760807275772095e-01 5.5079138278961182e-01</leafValues></_></weakClassifiers></stage19>
</opencv_storage>
