<?xml version="1.0"?>
<opencv_storage>
<stage17>
  <maxWeakCount>6</maxWeakCount>
  <stageThreshold>-7.1567153930664062e-01</stageThreshold>
  <weakClassifiers>
    <_>
      <internalNodes>
        0 -1 190405 -782903824 -240660459 -1608441448 -169017255
        973192129 1091211441 1317080539 448786895</internalNodes>
      <leafValues>
        -8.4573000669479370e-01 5.7154405117034912e-01</leafValues></_>
    <_>
      <internalNodes>
        0 -1 111036 -1824066144 1241515048 -786287921 -578513152
        -2146905178 629269035 -746271157 -4719478</internalNodes>
      <leafValues>
        -7.5052458047866821e-01 4.9924883246421814e-01</leafValues></_>
    <_>
      <internalNodes>
        0 -1 144086 1492420319 2122061076 1610944521 613353513 144566494
        -345964368 -1451163118 -1164046141</internalNodes>
      <leafValues>
        -6.5788811445236206e-01 6.0895889997482300e-01</leafValues></_>
    <_>
      <internalNodes>
        0 -1 192614 2097298263 92946565 203073 -626958277 1744999319
        570573067 1208656019 1918513411</internalNodes>
      <leafValues>
        -8.8655710220336914e-01 3.9207470417022705e-01</leafValues></_>
    <_>
      <internalNodes>
        0 -1 201925 -1290241 -207388463 -1073689467 -653737468
        -2109557853 411209730 -876469616 -859282394</internalNodes>
      <leafValues>
        -6.8312621116638184e-01 5.4354512691497803e-01</leafValues></_>
    <_>
      <internalNodes>
        0 -1 20416 176505087 -1534393696 -1038020454 1300568529
        -735854005 1449595506 -1711238714 -665343247</internalNodes>
      <leafValues>
        -6.4692211151123047e-01 6.1717557907104492e-01</leafValues></_></weakClassifiers></stage17>
</opencv_storage>
