<?xml version="1.0"?>
<opencv_storage>
<stage13>
  <maxWeakCount>4</maxWeakCount>
  <stageThreshold>-2.8734430670738220e-01</stageThreshold>
  <weakClassifiers>
    <_>
      <internalNodes>
        0 -1 182850 -1241754378 -552280612 -1811858359 689183940
        -200792696 -790069230 -1995850485 253603214</internalNodes>
      <leafValues>
        -8.5051548480987549e-01 6.0231024026870728e-01</leafValues></_>
    <_>
      <internalNodes>
        0 -1 224096 -537133067 -1111976912 -943156068 -1924543415
        -2117935312 -255156030 -800741115 -607405339</internalNodes>
      <leafValues>
        -7.0496106147766113e-01 5.8003574609756470e-01</leafValues></_>
    <_>
      <internalNodes>
        0 -1 31139 -96807233 -170912946 -1727982592 -667672172
        -1164905793 1936296873 306980999 -173298786</internalNodes>
      <leafValues>
        -6.2890732288360596e-01 6.6008418798446655e-01</leafValues></_>
    <_>
      <internalNodes>
        0 -1 190277 -797910972 605898069 71764763 -251330223 -259856193
        1486946997 419492763 -340216771</internalNodes>
      <leafValues>
        -6.7421334981918335e-01 6.1204272508621216e-01</leafValues></_></weakClassifiers></stage13>
</opencv_storage>
