<?xml version="1.0"?>
<opencv_storage>
<stage6>
  <maxWeakCount>4</maxWeakCount>
  <stageThreshold>-3.5184189677238464e-01</stageThreshold>
  <weakClassifiers>
    <_>
      <internalNodes>
        0 -1 186737 -19264258 -103152265 290405301 -552476645 -652346216
        -82673620 562632835 -5516337</internalNodes>
      <leafValues>
        -8.6965376138687134e-01 7.4571686983108521e-01</leafValues></_>
    <_>
      <internalNodes>
        0 -1 127060 -266538761 -778493867 -1048243753 -585314025
        -1339508497 -1199470422 -611787802 -548716537</internalNodes>
      <leafValues>
        -7.8821426630020142e-01 7.0340645313262939e-01</leafValues></_>
    <_>
      <internalNodes>
        0 -1 202273 473486847 -610769348 294689021 -145975103
        -1826567942 -1695940182 -1476343570 -1912045416</internalNodes>
      <leafValues>
        -7.4016183614730835e-01 6.8094885349273682e-01</leafValues></_>
    <_>
      <internalNodes>
        0 -1 143606 -187379969 -1726795297 407081439 -1828507637
        1891910655 981534874 -1435468865 -29280103</internalNodes>
      <leafValues>
        -8.1295537948608398e-01 6.2507730722427368e-01</leafValues></_></weakClassifiers></stage6>
</opencv_storage>
