<?xml version="1.0"?>
<opencv_storage>
<stage8>
  <maxWeakCount>4</maxWeakCount>
  <stageThreshold>-3.5689109563827515e-01</stageThreshold>
  <weakClassifiers>
    <_>
      <internalNodes>
        0 -1 166187 -2099884289 -1027723 290791801 2099336457
        -1087134773 -23280750 50350635 800931989</internalNodes>
      <leafValues>
        -8.5652172565460205e-01 6.9649124145507812e-01</leafValues></_>
    <_>
      <internalNodes>
        0 -1 175224 435838687 -549662226 -259738755 -252123427
        -1282924421 -119815999 -40185206 -1467422056</internalNodes>
      <leafValues>
        -7.7608484029769897e-01 6.3906276226043701e-01</leafValues></_>
    <_>
      <internalNodes>
        0 -1 159941 -41885776 -1974370083 -1777745389 -152186408
        -391544001 -728858557 -1296049217 -1093323</internalNodes>
      <leafValues>
        -8.1718075275421143e-01 5.8708727359771729e-01</leafValues></_>
    <_>
      <internalNodes>
        0 -1 202181 932469245 -1151844102 -1862254373 -94715866
        -669875110 -2096561983 -1186950465 -1110640468</internalNodes>
      <leafValues>
        -7.2651940584182739e-01 6.9028592109680176e-01</leafValues></_></weakClassifiers></stage8>
</opencv_storage>
