<?xml version="1.0"?>
<opencv_storage>
<stage15>
  <maxWeakCount>4</maxWeakCount>
  <stageThreshold>-5.8031833171844482e-01</stageThreshold>
  <weakClassifiers>
    <_>
      <internalNodes>
        0 -1 133453 -4984673 -1373900773 -1027602108 -577781243
        551553279 -23879254 813714405 -13746551</internalNodes>
      <leafValues>
        -7.4944072961807251e-01 6.3746750354766846e-01</leafValues></_>
    <_>
      <internalNodes>
        0 -1 186377 -187148952 -1869078067 428971408 -706787107
        -1597974085 -370630207 -612348101 -350175099</internalNodes>
      <leafValues>
        -7.3895561695098877e-01 5.2837854623794556e-01</leafValues></_>
    <_>
      <internalNodes>
        0 -1 137932 -1240293163 -396840183 1006698769 -981212152
        1891916255 1856518921 -266106225 -7624031</internalNodes>
      <leafValues>
        -8.7603962421417236e-01 4.5008337497711182e-01</leafValues></_>
    <_>
      <internalNodes>
        0 -1 202202 1362164669 1560383896 1006734257 -116293443
        -1324338768 -2055176062 1242206364 -1904702312</internalNodes>
      <leafValues>
        -7.4086254835128784e-01 5.1678341627120972e-01</leafValues></_></weakClassifiers></stage15>
</opencv_storage>
