<?xml version="1.0"?>
<opencv_storage>
<stage3>
  <maxWeakCount>5</maxWeakCount>
  <stageThreshold>-9.8275899887084961e-01</stageThreshold>
  <weakClassifiers>
    <_>
      <internalNodes>
        0 -1 147409 -84010753 -790243993 -1 -1 644898815 1843419907
        -96468993 -69206017</internalNodes>
      <leafValues>
        -8.1657850742340088e-01 8.3543080091476440e-01</leafValues></_>
    <_>
      <internalNodes>
        0 -1 214481 -274730072 -1845321306 1099142541 -1456244465
        -248528423 -632647038 -347080681 -1073741865</internalNodes>
      <leafValues>
        -8.6680603027343750e-01 7.1078795194625854e-01</leafValues></_>
    <_>
      <internalNodes>
        0 -1 197992 -1144834561 -786628459 268517867 -778567550
        847380641 -1476362110 -2088566104 -74792296</internalNodes>
      <leafValues>
        -9.1307556629180908e-01 6.6345983743667603e-01</leafValues></_>
    <_>
      <internalNodes>
        0 -1 208650 -1866849576 -780140536 1073823761 -787136512
        -2113896430 33685504 -2147446094 -166055808</internalNodes>
      <leafValues>
        -7.4108225107192993e-01 7.9770350456237793e-01</leafValues></_>
    <_>
      <internalNodes>
        0 -1 90295 -779820361 -1073594301 268443713 1887995965
        -1056849233 -1067388781 -1040158173 -67473361</internalNodes>
      <leafValues>
        -8.3156210184097290e-01 7.7824789285659790e-01</leafValues></_></weakClassifiers></stage3>
</opencv_storage>
