<?xml version="1.0"?>
<opencv_storage>
<stage5>
  <maxWeakCount>4</maxWeakCount>
  <stageThreshold>-4.7484499216079712e-01</stageThreshold>
  <weakClassifiers>
    <_>
      <internalNodes>
        0 -1 136276 -61800457 -3816175 -805252725 -258916147 -1164934981
        -786069346 -1595878465 2016493999</internalNodes>
      <leafValues>
        -8.9177489280700684e-01 7.1353250741958618e-01</leafValues></_>
    <_>
      <internalNodes>
        0 -1 186626 49807615 -37365677 -1828243137 -241101295
        -1170107233 -275588984 -1425493861 -16023422</internalNodes>
      <leafValues>
        -8.5349506139755249e-01 6.2961059808731079e-01</leafValues></_>
    <_>
      <internalNodes>
        0 -1 218024 -472908303 -1415921648 -662308451 -1688614594
        -654269703 -131481432 -1064797923 -70466887</internalNodes>
      <leafValues>
        -7.8373599052429199e-01 6.4911973476409912e-01</leafValues></_>
    <_>
      <internalNodes>
        0 -1 182725 -620695430 -728690287 -2129653424 1534099648
        -679436133 -726462336 -2013087016 492351875</internalNodes>
      <leafValues>
        -8.6766952276229858e-01 6.2130522727966309e-01</leafValues></_></weakClassifiers></stage5>
</opencv_storage>
