<?xml version="1.0"?>
<opencv_storage>
<stage9>
  <maxWeakCount>5</maxWeakCount>
  <stageThreshold>-1.1324223279953003e+00</stageThreshold>
  <weakClassifiers>
    <_>
      <internalNodes>
        0 -1 55848 -217975401 -540471239 -854484497 261169152 -293491781
        914883153 -897532964 1185655960</internalNodes>
      <leafValues>
        -8.8118809461593628e-01 6.3210701942443848e-01</leafValues></_>
    <_>
      <internalNodes>
        0 -1 148893 -990451489 -1613194659 307843223 818499849
        -670463493 -620625887 -888945784 -1462721263</internalNodes>
      <leafValues>
        -7.5185132026672363e-01 5.7383871078491211e-01</leafValues></_>
    <_>
      <internalNodes>
        0 -1 84766 -71046418 -362296446 614137930 -1191800442 119778231
        -1870421886 67369147 -171445298</internalNodes>
      <leafValues>
        -6.8358445167541504e-01 6.3022696971893311e-01</leafValues></_>
    <_>
      <internalNodes>
        0 -1 181658 -1874071315 -704407465 -880606423 -148547325
        -519987191 -376897280 -2119857719 25749775</internalNodes>
      <leafValues>
        -8.5575944185256958e-01 5.1135051250457764e-01</leafValues></_>
    <_>
      <internalNodes>
        0 -1 179089 -19508995 -673130344 -2096088727 1497710593
        -268191473 -886046520 -762307935 -1199027184</internalNodes>
      <leafValues>
        -6.7083400487899780e-01 6.7285114526748657e-01</leafValues></_></weakClassifiers></stage9>
</opencv_storage>
