<?xml version="1.0"?>
<opencv_storage>
<stage12>
  <maxWeakCount>5</maxWeakCount>
  <stageThreshold>-1.0715937614440918e+00</stageThreshold>
  <weakClassifiers>
    <_>
      <internalNodes>
        0 -1 194249 -111411244 1543865493 1628035140 -582631348
        1153563365 1611661322 1636987836 201034709</internalNodes>
      <leafValues>
        -9.3121695518493652e-01 6.1538463830947876e-01</leafValues></_>
    <_>
      <internalNodes>
        0 -1 173911 -1535700129 -212535295 -264175360 -1584173054
        -536830781 -1439660031 -512217088 -1075743104</internalNodes>
      <leafValues>
        -6.6879659891128540e-01 6.1985927820205688e-01</leafValues></_>
    <_>
      <internalNodes>
        0 -1 185102 -77839927 -242138993 -1610503933 1597378707
        -1878937385 -100138860 -83778937 -2132803881</internalNodes>
      <leafValues>
        -7.1402162313461304e-01 5.4511040449142456e-01</leafValues></_>
    <_>
      <internalNodes>
        0 -1 129607 1348257015 -15204203 4261779 816125451 -427308033
        -1162542967 -2086663799 -124499964</internalNodes>
      <leafValues>
        -7.1332645416259766e-01 5.9508353471755981e-01</leafValues></_>
    <_>
      <internalNodes>
        0 -1 96318 -1759137761 2099563735 524468416 -2091785577
        -1574395253 -2102874968 1258309235 -873724349</internalNodes>
      <leafValues>
        -8.9924371242523193e-01 4.1535174846649170e-01</leafValues></_></weakClassifiers></stage12>
</opencv_storage>
