<?xml version="1.0"?>
<opencv_storage>
<stage16>
  <maxWeakCount>4</maxWeakCount>
  <stageThreshold>-5.2795261144638062e-01</stageThreshold>
  <weakClassifiers>
    <_>
      <internalNodes>
        0 -1 190747 940461276 -242818856 -452718269 -736870383
        -2137882886 -909564800 772309741 1355365595</internalNodes>
      <leafValues>
        -8.5245901346206665e-01 5.7698541879653931e-01</leafValues></_>
    <_>
      <internalNodes>
        0 -1 148659 1557974719 -840062917 -670464765 583861543
        2080357071 -6289303 -1949745147 -367247223</internalNodes>
      <leafValues>
        -7.0721137523651123e-01 5.4599088430404663e-01</leafValues></_>
    <_>
      <internalNodes>
        0 -1 43739 1583403727 2042822660 -1657687747 1120567818
        1381470687 -930414590 315542019 -4751333</internalNodes>
      <leafValues>
        -6.5167152881622314e-01 5.8131140470504761e-01</leafValues></_>
    <_>
      <internalNodes>
        0 -1 162119 -1093511585 -1257176399 406143061 -577466336
        -626360471 2063671848 -1643988303 864174608</internalNodes>
      <leafValues>
        -8.0279588699340820e-01 5.0207293033599854e-01</leafValues></_></weakClassifiers></stage16>
</opencv_storage>
