<?xml version="1.0"?>
<opencv_storage>
<cascade>
  <stageType>BOOST</stageType>
  <featureType>LBP</featureType>
  <height>40</height>
  <width>60</width>
  <stageParams>
    <boostType>GAB</boostType>
    <minHitRate>9.9900001287460327e-01</minHitRate>
    <maxFalseAlarm>5.0000000000000000e-01</maxFalseAlarm>
    <weightTrimRate>9.4999999999999996e-01</weightTrimRate>
    <maxDepth>1</maxDepth>
    <maxWeakCount>100</maxWeakCount></stageParams>
  <featureParams>
    <maxCatCount>256</maxCatCount>
    <featSize>1</featSize></featureParams>
  <stageNum>20</stageNum>
  <stages>
    <!-- stage 0 -->
    <_>
      <maxWeakCount>3</maxWeakCount>
      <stageThreshold>-1.0077165365219116e+00</stageThreshold>
      <weakClassifiers>
        <_>
          <internalNodes>
            0 -1 7 38371795 299438729 -8189 -546308097 -1006370817
            532873 1552080895 2147467263</internalNodes>
          <leafValues>
            -9.7337770462036133e-01 9.8598599433898926e-01</leafValues></_>
        <_>
          <internalNodes>
            0 -1 1 50613519 1346600963 65545 18809283 9544343 8454155
            338239899 1543498671</internalNodes>
          <leafValues>
            -9.6229505538940430e-01 9.5961827039718628e-01</leafValues></_>
        <_>
          <internalNodes>
            0 -1 15 1091688431 8585348 67175441 1431113951 -1874749013
            167772322 287517439 1073736703</internalNodes>
          <leafValues>
            -9.6485233306884766e-01 9.2795628309249878e-01</leafValues></_></weakClassifiers></_>
    <!-- stage 1 -->
    <_>
      <maxWeakCount>2</maxWeakCount>
      <stageThreshold>-1.7855542898178101e-01</stageThreshold>
      <weakClassifiers>
        <_>
          <internalNodes>
            0 -1 8 -673317889 -715934781 -1805516536 -619355171
            -225001221 1403888875 -689196561 1610612731</internalNodes>
          <leafValues>
            -9.6323531866073608e-01 8.7500000000000000e-01</leafValues></_>
        <_>
          <internalNodes>
            0 -1 56 -3148537 -208544925 -533868529 -781192933 1090903439
            -248409401 1354858667 2142731215</internalNodes>
          <leafValues>
            -9.4006156921386719e-01 7.8467988967895508e-01</leafValues></_></weakClassifiers></_>
    <!-- stage 2 -->
    <_>
      <maxWeakCount>3</maxWeakCount>
      <stageThreshold>-9.9374169111251831e-01</stageThreshold>
      <weakClassifiers>
        <_>
          <internalNodes>
            0 -1 5 -679880225 -720514851 -243158817 1562198226
            -1097280517 -1310734117 1543175103 2143285247</internalNodes>
          <leafValues>
            -8.9435338973999023e-01 8.4776401519775391e-01</leafValues></_>
        <_>
          <internalNodes>
            0 -1 69 -1616667745 -2144414973 269566022 -2095855525
            34201871 -1878981407 -2113683321 -1145310209</internalNodes>
          <leafValues>
            -8.6868387460708618e-01 7.7996492385864258e-01</leafValues></_>
        <_>
          <internalNodes>
            0 -1 63 -1714875849 -1152499695 -788490795 -574799523
            -1157619662 -1174405118 -922684998 -236910093</internalNodes>
          <leafValues>
            -8.7168455123901367e-01 7.6929557323455811e-01</leafValues></_></weakClassifiers></_>
    <!-- stage 3 -->
    <_>
      <maxWeakCount>2</maxWeakCount>
      <stageThreshold>-2.9036137461662292e-01</stageThreshold>
      <weakClassifiers>
        <_>
          <internalNodes>
            0 -1 3 -259007529 -69237635 -1337477647 -9162345 -68634225
            1739514602 -620192769 2080369292</internalNodes>
          <leafValues>
            -9.1411042213439941e-01 7.6237624883651733e-01</leafValues></_>
        <_>
          <internalNodes>
            0 -1 34 -472158290 -111849589 -653165232 -604957241
            -2117483669 -766867288 -2122150917 -875885825</internalNodes>
          <leafValues>
            -9.1711664199829102e-01 6.2374901771545410e-01</leafValues></_></weakClassifiers></_>
    <!-- stage 4 -->
    <_>
      <maxWeakCount>3</maxWeakCount>
      <stageThreshold>-8.4067356586456299e-01</stageThreshold>
      <weakClassifiers>
        <_>
          <internalNodes>
            0 -1 62 -1077802464 -796851970 1073739921 -9 1065320304 0
            545423528 -1400</internalNodes>
          <leafValues>
            -7.6190477609634399e-01 8.3794468641281128e-01</leafValues></_>
        <_>
          <internalNodes>
            0 -1 70 -443099681 -1390755579 1338458375 -1755884081
            -2140422013 -1811000971 -2080448086 -1073743873</internalNodes>
          <leafValues>
            -8.0074048042297363e-01 7.8835910558700562e-01</leafValues></_>
        <_>
          <internalNodes>
            0 -1 64 -2130050928 -804192256 1073741841 -805306367
            -2147319680 -2147483648 -2113888092 -73695232</internalNodes>
          <leafValues>
            -8.3110034465789795e-01 7.2197169065475464e-01</leafValues></_></weakClassifiers></_>
    <!-- stage 5 -->
    <_>
      <maxWeakCount>2</maxWeakCount>
      <stageThreshold>-1.7842350900173187e-01</stageThreshold>
      <weakClassifiers>
        <_>
          <internalNodes>
            0 -1 67 -1827266048 -1073741824 0 -787365759 -1073184127 0
            -2147319158 -796286848</internalNodes>
          <leafValues>
            -9.2576420307159424e-01 7.2154116630554199e-01</leafValues></_>
        <_>
          <internalNodes>
            0 -1 43 -174066721 -417755017 -250527631 -292987439
            -473624471 156751903 -1191521829 -1143022691</internalNodes>
          <leafValues>
            -7.6528704166412354e-01 7.4734067916870117e-01</leafValues></_></weakClassifiers></_>
    <!-- stage 6 -->
    <_>
      <maxWeakCount>3</maxWeakCount>
      <stageThreshold>-9.2043876647949219e-01</stageThreshold>
      <weakClassifiers>
        <_>
          <internalNodes>
            0 -1 27 -1073805381 -1073803873 -1 1073683967 -1342199105
            -1342259201 -1077952513 -1074085889</internalNodes>
          <leafValues>
            -7.5172412395477295e-01 8.1960785388946533e-01</leafValues></_>
        <_>
          <internalNodes>
            0 -1 28 -105848963 -628073543 -1463221831 -549726051
            -2121102658 -761771832 -742861651 -16199168</internalNodes>
          <leafValues>
            -8.6940068006515503e-01 6.7315447330474854e-01</leafValues></_>
        <_>
          <internalNodes>
            0 -1 44 -782381635 -713719777 9507802 -247656393 -1694192903
            -838827567 -1954428184 -1349711221</internalNodes>
          <leafValues>
            -7.7160227298736572e-01 7.0068603754043579e-01</leafValues></_></weakClassifiers></_>
    <!-- stage 7 -->
    <_>
      <maxWeakCount>3</maxWeakCount>
      <stageThreshold>-8.7188380956649780e-01</stageThreshold>
      <weakClassifiers>
        <_>
          <internalNodes>
            0 -1 9 35652351 -1431818536 -285212673 -66051 -50339841
            -1077936130 -84082691 -327940</internalNodes>
          <leafValues>
            -8.0212014913558960e-01 8.2591873407363892e-01</leafValues></_>
        <_>
          <internalNodes>
            0 -1 19 -375694083 -615886511 -788422649 -236871400
            -1333122369 -92170832 -1416936881 -2145967</internalNodes>
          <leafValues>
            -8.1618165969848633e-01 7.7180761098861694e-01</leafValues></_>
        <_>
          <internalNodes>
            0 -1 31 -1761559079 -174260159 1359321343 -982595 243449263
            -1149073236 -1474254713 -590825280</internalNodes>
          <leafValues>
            -8.3192461729049683e-01 7.4641799926757812e-01</leafValues></_></weakClassifiers></_>
    <!-- stage 8 -->
    <_>
      <maxWeakCount>4</maxWeakCount>
      <stageThreshold>-2.4099142849445343e-01</stageThreshold>
      <weakClassifiers>
        <_>
          <internalNodes>
            0 -1 68 856375157 -712814443 -112869039 -108162925
            1762717926 -389543804 -1688162113 -87694975</internalNodes>
          <leafValues>
            -8.1604695320129395e-01 7.5022959709167480e-01</leafValues></_>
        <_>
          <internalNodes>
            0 -1 23 -1974941441 -39288816 570825155 -2012200892
            -2013086981 -7437608 -2012694385 -1366376504</internalNodes>
          <leafValues>
            -7.8743600845336914e-01 6.8889188766479492e-01</leafValues></_>
        <_>
          <internalNodes>
            0 -1 54 -786505849 -644242167 1409810933 -143584753
            -666253579 -1048534864 148924917 -21419894</internalNodes>
          <leafValues>
            -7.8549754619598389e-01 6.8823450803756714e-01</leafValues></_>
        <_>
          <internalNodes>
            0 -1 71 -1929055691 -155172835 268452880 -574619520
            -1727985528 -2147384824 41970310 -1095587262</internalNodes>
          <leafValues>
            -8.0207085609436035e-01 6.9693130254745483e-01</leafValues></_></weakClassifiers></_>
    <!-- stage 9 -->
    <_>
      <maxWeakCount>5</maxWeakCount>
      <stageThreshold>-1.0844842195510864e+00</stageThreshold>
      <weakClassifiers>
        <_>
          <internalNodes>
            0 -1 22 1398627799 -44705967 -547522187 -11138671
            -1145593639 -1153335267 -1680500441 469351269</internalNodes>
          <leafValues>
            -8.5654008388519287e-01 7.1580815315246582e-01</leafValues></_>
        <_>
          <internalNodes>
            0 -1 49 -180637901 -44083047 -251066093 -548073431 405445359
            -2070894436 89698223 2131846342</internalNodes>
          <leafValues>
            -8.7654405832290649e-01 6.5843415260314941e-01</leafValues></_>
        <_>
          <internalNodes>
            0 -1 40 -38404107 1974845364 -1 -79970817 -139468913
            -13115409 -542138420 -1615162232</internalNodes>
          <leafValues>
            -7.0719730854034424e-01 7.8017932176589966e-01</leafValues></_>
        <_>
          <internalNodes>
            0 -1 46 1368637903 -1796168701 402662733 1564999688
            -880763651 -385843184 184846541 -175695744</internalNodes>
          <leafValues>
            -7.4859774112701416e-01 7.2395086288452148e-01</leafValues></_>
        <_>
          <internalNodes>
            0 -1 72 -1252722827 -1794780315 -1073709055 -749641533
            -133844785 -796801643 -1055440639 -1148463681</internalNodes>
          <leafValues>
            -8.1940180063247681e-01 6.3184642791748047e-01</leafValues></_></weakClassifiers></_>
    <!-- stage 10 -->
    <_>
      <maxWeakCount>4</maxWeakCount>
      <stageThreshold>-2.1826848387718201e-01</stageThreshold>
      <weakClassifiers>
        <_>
          <internalNodes>
            0 -1 17 -583908097 -176303916 -2121545595 -608046620
            -206945051 -926629734 -125212303 -2468495</internalNodes>
          <leafValues>
            -7.8071832656860352e-01 7.5910365581512451e-01</leafValues></_>
        <_>
          <internalNodes>
            0 -1 73 -21299777 -1095045121 -1 -1073741825 -1409303617
            -4521985 -1073807361 -1140851777</internalNodes>
          <leafValues>
            -7.1509116888046265e-01 7.4853640794754028e-01</leafValues></_>
        <_>
          <internalNodes>
            0 -1 2 -590809123 2067920163 -57634681 1560398323 -939416837
            -1073592111 -1434207781 1814365599</internalNodes>
          <leafValues>
            -8.9388233423233032e-01 5.8187085390090942e-01</leafValues></_>
        <_>
          <internalNodes>
            0 -1 60 847404799 -645463748 -1266399401 -266829740
            -2011969497 -1579887037 -1424981861 -1668761488</internalNodes>
          <leafValues>
            -7.6795738935470581e-01 7.2580486536026001e-01</leafValues></_></weakClassifiers></_>
    <!-- stage 11 -->
    <_>
      <maxWeakCount>5</maxWeakCount>
      <stageThreshold>-1.0548114776611328e+00</stageThreshold>
      <weakClassifiers>
        <_>
          <internalNodes>
            0 -1 61 -1074980041 -2932653 -2113864061 -728145661
            -628654369 -1429658994 -243012657 -34214749</internalNodes>
          <leafValues>
            -8.0042463541030884e-01 6.8821966648101807e-01</leafValues></_>
        <_>
          <internalNodes>
            0 -1 16 949509375 2031477267 1493391658 -593262330 721571839
            -1928691382 178799907 -1150281</internalNodes>
          <leafValues>
            -7.8938543796539307e-01 6.0138052701950073e-01</leafValues></_>
        <_>
          <internalNodes>
            0 -1 36 -783158472 -754937835 12599482 1896677759 -131229187
            -134160341 -1440445477 -290484257</internalNodes>
          <leafValues>
            -6.4382898807525635e-01 7.1413749456405640e-01</leafValues></_>
        <_>
          <internalNodes>
            0 -1 45 -788467218 260363990 1342312528 1330217792
            -1341091782 -2113634304 -1069023220 -125073272</internalNodes>
          <leafValues>
            -7.6329404115676880e-01 6.1122035980224609e-01</leafValues></_>
        <_>
          <internalNodes>
            0 -1 37 -648712215 -745172979 1347693007 -795385840
            -233716867 -236289012 165858968 -543380897</internalNodes>
          <leafValues>
            -7.8720647096633911e-01 5.5135560035705566e-01</leafValues></_></weakClassifiers></_>
    <!-- stage 12 -->
    <_>
      <maxWeakCount>4</maxWeakCount>
      <stageThreshold>-5.1298403739929199e-01</stageThreshold>
      <weakClassifiers>
        <_>
          <internalNodes>
            0 -1 53 -787281993 -841710571 1241532957 -551746916
            -186476113 -209532540 -1256846197 2066426298</internalNodes>
          <leafValues>
            -8.4149181842803955e-01 6.4987188577651978e-01</leafValues></_>
        <_>
          <internalNodes>
            0 -1 6 411226367 -783793853 -2099674162 -716975080 662267
            -351714291 2043225700 -68584662</internalNodes>
          <leafValues>
            -7.9395866394042969e-01 5.4879903793334961e-01</leafValues></_>
        <_>
          <internalNodes>
            0 -1 39 1950407676 -714215337 1092469045 -711079177
            -1667841821 1447401635 -1070211257 -39154553</internalNodes>
          <leafValues>
            -7.2401130199432373e-01 6.1949193477630615e-01</leafValues></_>
        <_>
          <internalNodes>
            0 -1 26 -247229101 -1874837247 16896451 -782937850
            -1597824269 -125792055 -38669387 432003815</internalNodes>
          <leafValues>
            -9.2780667543411255e-01 5.0372004508972168e-01</leafValues></_></weakClassifiers></_>
    <!-- stage 13 -->
    <_>
      <maxWeakCount>5</maxWeakCount>
      <stageThreshold>-1.1101181507110596e+00</stageThreshold>
      <weakClassifiers>
        <_>
          <internalNodes>
            0 -1 57 -168035017 -87322063 -1870391373 -2088034011
            809515681 -1608351614 159460049 2079013859</internalNodes>
          <leafValues>
            -9.0551179647445679e-01 6.1115670204162598e-01</leafValues></_>
        <_>
          <internalNodes>
            0 -1 35 -716108311 -708750215 -1870604720 -106405730
            -2122069045 -83840949 -2046635539 -1374508920</internalNodes>
          <leafValues>
            -7.3066198825836182e-01 5.8320158720016479e-01</leafValues></_>
        <_>
          <internalNodes>
            0 -1 12 -621094145 -1096122376 989757183 1069481981
            2147471055 1068498923 -1141309441 -1073807361</internalNodes>
          <leafValues>
            -6.0841786861419678e-01 6.9596409797668457e-01</leafValues></_>
        <_>
          <internalNodes>
            0 -1 18 -715981923 -2952940 -2147188718 1486274627
            -610481894 671646225 -774262774 448315971</internalNodes>
          <leafValues>
            -8.5906630754470825e-01 5.2348256111145020e-01</leafValues></_>
        <_>
          <internalNodes>
            0 -1 41 -645269612 -1966567395 1073845586 552498713
            -493754885 -930741613 -523761166 -1879078661</internalNodes>
          <leafValues>
            -8.2751059532165527e-01 4.8901447653770447e-01</leafValues></_></weakClassifiers></_>
    <!-- stage 14 -->
    <_>
      <maxWeakCount>4</maxWeakCount>
      <stageThreshold>-1.4202023744583130e+00</stageThreshold>
      <weakClassifiers>
        <_>
          <internalNodes>
            0 -1 42 -972542599 -896155504 -1996378344 -310277872
            -1811886020 -921960311 -1349268322 -880563582</internalNodes>
          <leafValues>
            -7.3504275083541870e-01 6.5724378824234009e-01</leafValues></_>
        <_>
          <internalNodes>
            0 -1 32 269244639 -1664823042 731255133 -2071584380
            -1166016325 -117423096 1535924890 -72832340</internalNodes>
          <leafValues>
            -7.7037900686264038e-01 5.6364578008651733e-01</leafValues></_>
        <_>
          <internalNodes>
            0 -1 51 -233711115 -908606003 -179711723 -447254195
            -42622919 -640658416 -1198679579 -1177225023</internalNodes>
          <leafValues>
            -7.1252495050430298e-01 5.6016063690185547e-01</leafValues></_>
        <_>
          <internalNodes>
            0 -1 13 -736562945 2010398721 -1073487862 2030780816
            950039503 -1853831165 1510105505 -590828886</internalNodes>
          <leafValues>
            -5.9454226493835449e-01 7.0868629217147827e-01</leafValues></_></weakClassifiers></_>
    <!-- stage 15 -->
    <_>
      <maxWeakCount>6</maxWeakCount>
      <stageThreshold>-1.7254422903060913e+00</stageThreshold>
      <weakClassifiers>
        <_>
          <internalNodes>
            0 -1 48 -1109711260 -670213143 -1040141311 -931085117
            -796792826 -247416629 -779431542 1674832387</internalNodes>
          <leafValues>
            -8.2722514867782593e-01 5.8784896135330200e-01</leafValues></_>
        <_>
          <internalNodes>
            0 -1 75 1346360527 -1148061119 1667665986 -1504358061
            -262088050 -242630463 1894224107 -1367084965</internalNodes>
          <leafValues>
            -6.3488501310348511e-01 6.3759952783584595e-01</leafValues></_>
        <_>
          <internalNodes>
            0 -1 50 89229759 1095827475 -1860644418 -1994817515
            -1451044783 -394229716 -1421712012 -885407479</internalNodes>
          <leafValues>
            -7.9431152343750000e-01 4.9925300478935242e-01</leafValues></_>
        <_>
          <internalNodes>
            0 -1 21 -99986817 -1634074088 304355919 349995112 -140487797
            -16572348 -1308606305 -1093881847</internalNodes>
          <leafValues>
            -6.8751585483551025e-01 5.8818054199218750e-01</leafValues></_>
        <_>
          <internalNodes>
            0 -1 29 -1816855923 -534798297 -1878450153 -644247339
            -1593145202 -820278837 -1971173229 -121075579</internalNodes>
          <leafValues>
            -8.0151396989822388e-01 4.8746195435523987e-01</leafValues></_>
        <_>
          <internalNodes>
            0 -1 4 -572327553 -420741270 -135331863 -362332576
            1073274427 2069823318 -1314369346 -53525269</internalNodes>
          <leafValues>
            -5.6253123283386230e-01 7.0698040723800659e-01</leafValues></_></weakClassifiers></_>
    <!-- stage 16 -->
    <_>
      <maxWeakCount>4</maxWeakCount>
      <stageThreshold>-5.2927201986312866e-01</stageThreshold>
      <weakClassifiers>
        <_>
          <internalNodes>
            0 -1 0 1373714639 -846057321 -1740488681 -813678578
            -1870074899 -1131836755 -561925669 2147184746</internalNodes>
          <leafValues>
            -8.3597886562347412e-01 5.8592468500137329e-01</leafValues></_>
        <_>
          <internalNodes>
            0 -1 65 -658321665 541065233 -1828712189 -998207477
            956304030 -75397110 1284006347 998492586</internalNodes>
          <leafValues>
            -6.8587374687194824e-01 5.3877145051956177e-01</leafValues></_>
        <_>
          <internalNodes>
            0 -1 76 -1257779458 555606837 25255947 -2007121661
            -998079332 -1325400048 -528424245 -1431373745</internalNodes>
          <leafValues>
            -8.2403540611267090e-01 4.7375306487083435e-01</leafValues></_>
        <_>
          <internalNodes>
            0 -1 30 -1068969598 -53444468 -1073720900 1971606276
            -111148805 -266956431 -1710694990 -1611626871</internalNodes>
          <leafValues>
            -6.5531861782073975e-01 5.9197080135345459e-01</leafValues></_></weakClassifiers></_>
    <!-- stage 17 -->
    <_>
      <maxWeakCount>4</maxWeakCount>
      <stageThreshold>-5.7652580738067627e-01</stageThreshold>
      <weakClassifiers>
        <_>
          <internalNodes>
            0 -1 14 -715130187 -546844400 1078040665 1440337973
            -145448837 227049546 -782113271 1032380576</internalNodes>
          <leafValues>
            -9.2145013809204102e-01 5.5555558204650879e-01</leafValues></_>
        <_>
          <internalNodes>
            0 -1 38 1946866908 -45088556 -1886831271 -1916174331
            -1978914646 -536074112 -390351205 -2010603057</internalNodes>
          <leafValues>
            -6.8019455671310425e-01 5.3946095705032349e-01</leafValues></_>
        <_>
          <internalNodes>
            0 -1 47 340055546 -268173311 285217056 -1828618235
            -1065234254 -1807745008 -1853534072 -140180990</internalNodes>
          <leafValues>
            -7.7089053392410278e-01 5.3358370065689087e-01</leafValues></_>
        <_>
          <internalNodes>
            0 -1 25 -636829057 -41672612 44097693 223651604 -1677595457
            -1467777019 -1191146954 -1111168216</internalNodes>
          <leafValues>
            -6.7393249273300171e-01 5.7635390758514404e-01</leafValues></_></weakClassifiers></_>
    <!-- stage 18 -->
    <_>
      <maxWeakCount>6</maxWeakCount>
      <stageThreshold>-5.4331648349761963e-01</stageThreshold>
      <weakClassifiers>
        <_>
          <internalNodes>
            0 -1 10 -972012289 -250887797 -1035936446 -665075426
            -2004280193 -1610088263 -358124957 -356027789</internalNodes>
          <leafValues>
            -7.5057739019393921e-01 6.2125104665756226e-01</leafValues></_>
        <_>
          <internalNodes>
            0 -1 11 315383007 -231708513 446371662 686297367 1051229439
            -81065838 1770534019 -1196942389</internalNodes>
          <leafValues>
            -7.2325360774993896e-01 5.3175777196884155e-01</leafValues></_>
        <_>
          <internalNodes>
            0 -1 33 -670703780 -805236713 17324118 1494874623 -216411185
            -248657172 1156924751 1066046607</internalNodes>
          <leafValues>
            -7.8171652555465698e-01 4.7824022173881531e-01</leafValues></_>
        <_>
          <internalNodes>
            0 -1 59 -770244907 -619708404 -1944954693 201326594 60897455
            -1960804350 731195531 -35786101</internalNodes>
          <leafValues>
            -6.0698777437210083e-01 6.4376437664031982e-01</leafValues></_>
        <_>
          <internalNodes>
            0 -1 52 268825567 -268364709 -1862009869 805409237
            -1040135961 -1039630167 143836916 -1555689605</internalNodes>
          <leafValues>
            -7.3299640417098999e-01 5.2746933698654175e-01</leafValues></_>
        <_>
          <internalNodes>
            0 -1 74 -1073245945 -1593736891 553860881 -478060269
            -532580146 1778483202 -1040060200 -1931489158</internalNodes>
          <leafValues>
            -7.1350508928298950e-01 5.5516886711120605e-01</leafValues></_></weakClassifiers></_>
    <!-- stage 19 -->
    <_>
      <maxWeakCount>5</maxWeakCount>
      <stageThreshold>-1.1024729013442993e+00</stageThreshold>
      <weakClassifiers>
        <_>
          <internalNodes>
            0 -1 55 -2134571201 -1991962567 -1456945733 1130733964
            -1358887499 -468636590 184580067 -647206865</internalNodes>
          <leafValues>
            -7.2494173049926758e-01 6.0717338323593140e-01</leafValues></_>
        <_>
          <internalNodes>
            0 -1 20 -1873586945 1479655940 1073971776 -1824014204
            -674547041 -1063616341 -795727003 -304587</internalNodes>
          <leafValues>
            -7.4824959039688110e-01 5.0782150030136108e-01</leafValues></_>
        <_>
          <internalNodes>
            0 -1 66 -87263505 -44215212 -1571792497 13251018 26026687
            999920640 185288702 -1884685917</internalNodes>
          <leafValues>
            -6.6425508260726929e-01 5.5029141902923584e-01</leafValues></_>
        <_>
          <internalNodes>
            0 -1 24 446596831 -1392341984 474043391 417634448 713836699
            696422657 1795269401 -1426969959</internalNodes>
          <leafValues>
            -7.0087957382202148e-01 5.4506808519363403e-01</leafValues></_>
        <_>
          <internalNodes>
            0 -1 58 1359585727 -649330679 -1056341555 -1643823023
            -486137697 -260001626 -1597994834 1925443466</internalNodes>
          <leafValues>
            -7.3476445674896240e-01 4.8646724224090576e-01</leafValues></_></weakClassifiers></_></stages>
  <features>
    <_>
      <rect>
        1 5 14 8</rect></_>
    <_>
      <rect>
        1 5 18 9</rect></_>
    <_>
      <rect>
        2 3 14 12</rect></_>
    <_>
      <rect>
        3 12 17 5</rect></_>
    <_>
      <rect>
        4 12 4 5</rect></_>
    <_>
      <rect>
        4 12 17 4</rect></_>
    <_>
      <rect>
        4 17 8 4</rect></_>
    <_>
      <rect>
        6 10 17 6</rect></_>
    <_>
      <rect>
        7 8 15 8</rect></_>
    <_>
      <rect>
        8 20 14 6</rect></_>
    <_>
      <rect>
        9 18 5 2</rect></_>
    <_>
      <rect>
        9 21 6 3</rect></_>
    <_>
      <rect>
        9 21 12 4</rect></_>
    <_>
      <rect>
        9 22 5 4</rect></_>
    <_>
      <rect>
        11 12 16 6</rect></_>
    <_>
      <rect>
        11 14 16 5</rect></_>
    <_>
      <rect>
        11 17 4 4</rect></_>
    <_>
      <rect>
        12 14 3 4</rect></_>
    <_>
      <rect>
        13 8 14 10</rect></_>
    <_>
      <rect>
        13 11 3 5</rect></_>
    <_>
      <rect>
        13 13 3 3</rect></_>
    <_>
      <rect>
        13 24 9 5</rect></_>
    <_>
      <rect>
        14 5 15 8</rect></_>
    <_>
      <rect>
        14 23 11 5</rect></_>
    <_>
      <rect>
        14 25 5 2</rect></_>
    <_>
      <rect>
        15 25 11 5</rect></_>
    <_>
      <rect>
        17 8 9 6</rect></_>
    <_>
      <rect>
        17 13 8 6</rect></_>
    <_>
      <rect>
        18 3 6 7</rect></_>
    <_>
      <rect>
        18 9 6 3</rect></_>
    <_>
      <rect>
        18 15 7 3</rect></_>
    <_>
      <rect>
        19 9 5 3</rect></_>
    <_>
      <rect>
        19 21 8 4</rect></_>
    <_>
      <rect>
        20 13 6 3</rect></_>
    <_>
      <rect>
        20 15 5 3</rect></_>
    <_>
      <rect>
        20 16 6 3</rect></_>
    <_>
      <rect>
        21 14 5 3</rect></_>
    <_>
      <rect>
        21 17 5 2</rect></_>
    <_>
      <rect>
        21 22 5 3</rect></_>
    <_>
      <rect>
        22 11 5 4</rect></_>
    <_>
      <rect>
        22 13 5 3</rect></_>
    <_>
      <rect>
        22 14 4 3</rect></_>
    <_>
      <rect>
        22 19 3 1</rect></_>
    <_>
      <rect>
        23 7 12 7</rect></_>
    <_>
      <rect>
        23 14 4 3</rect></_>
    <_>
      <rect>
        23 15 12 6</rect></_>
    <_>
      <rect>
        23 17 4 2</rect></_>
    <_>
      <rect>
        23 20 3 2</rect></_>
    <_>
      <rect>
        24 16 5 4</rect></_>
    <_>
      <rect>
        24 17 5 2</rect></_>
    <_>
      <rect>
        24 18 3 1</rect></_>
    <_>
      <rect>
        25 5 11 8</rect></_>
    <_>
      <rect>
        25 16 3 2</rect></_>
    <_>
      <rect>
        25 16 4 2</rect></_>
    <_>
      <rect>
        25 17 3 2</rect></_>
    <_>
      <rect>
        25 18 3 1</rect></_>
    <_>
      <rect>
        26 17 3 2</rect></_>
    <_>
      <rect>
        27 17 2 2</rect></_>
    <_>
      <rect>
        27 18 3 1</rect></_>
    <_>
      <rect>
        27 22 3 2</rect></_>
    <_>
      <rect>
        27 24 4 4</rect></_>
    <_>
      <rect>
        28 18 2 2</rect></_>
    <_>
      <rect>
        28 19 1 1</rect></_>
    <_>
      <rect>
        28 19 2 1</rect></_>
    <_>
      <rect>
        28 20 1 1</rect></_>
    <_>
      <rect>
        28 20 3 3</rect></_>
    <_>
      <rect>
        28 22 3 2</rect></_>
    <_>
      <rect>
        29 18 1 2</rect></_>
    <_>
      <rect>
        29 19 1 1</rect></_>
    <_>
      <rect>
        30 1 7 11</rect></_>
    <_>
      <rect>
        30 3 7 11</rect></_>
    <_>
      <rect>
        31 17 2 2</rect></_>
    <_>
      <rect>
        33 3 4 10</rect></_>
    <_>
      <rect>
        34 5 6 10</rect></_>
    <_>
      <rect>
        36 6 7 6</rect></_>
    <_>
      <rect>
        36 9 6 5</rect></_>
    <_>
      <rect>
        38 14 3 3</rect></_></features></cascade>
</opencv_storage>
