<?xml version="1.0"?>
<opencv_storage>
<cascade>
  <stageType>BOOST</stageType>
  <featureType>LBP</featureType>
  <height>40</height>
  <width>60</width>
  <stageParams>
    <boostType>GAB</boostType>
    <minHitRate>9.9900001287460327e-01</minHitRate>
    <maxFalseAlarm>5.0000000000000000e-01</maxFalseAlarm>
    <weightTrimRate>9.4999999999999996e-01</weightTrimRate>
    <maxDepth>1</maxDepth>
    <maxWeakCount>100</maxWeakCount></stageParams>
  <featureParams>
    <maxCatCount>256</maxCatCount>
    <featSize>1</featSize></featureParams>
  <stageNum>20</stageNum>
  <stages>
    <!-- stage 0 -->
    <_>
      <maxWeakCount>2</maxWeakCount>
      <stageThreshold>-3.9430413395166397e-02</stageThreshold>
      <weakClassifiers>
        <_>
          <internalNodes>
            0 -1 6 42271187 1162941321 26279939 285581699 1141051559
            589993 17517263 2147466235</internalNodes>
          <leafValues>
            -9.9318569898605347e-01 9.7038501501083374e-01</leafValues></_>
        <_>
          <internalNodes>
            0 -1 0 16777375 4360195 65793 218464643 545415307 2240515
            13996347 536839087</internalNodes>
          <leafValues>
            -9.5214545726776123e-01 9.5375525951385498e-01</leafValues></_></weakClassifiers></_>
    <!-- stage 1 -->
    <_>
      <maxWeakCount>2</maxWeakCount>
      <stageThreshold>-2.5384807586669922e-01</stageThreshold>
      <weakClassifiers>
        <_>
          <internalNodes>
            0 -1 4 -548022529 -2635033 1360652797 1024977365 -204014849
            1402044643 1132505823 1608515503</internalNodes>
          <leafValues>
            -9.8841696977615356e-01 8.4288352727890015e-01</leafValues></_>
        <_>
          <internalNodes>
            0 -1 37 -1344853266 -574236205 -1945401200 -72244992
            -2083783751 -511500125 -1912372768 -794149</internalNodes>
          <leafValues>
            -9.3320548534393311e-01 7.3456895351409912e-01</leafValues></_></weakClassifiers></_>
    <!-- stage 2 -->
    <_>
      <maxWeakCount>2</maxWeakCount>
      <stageThreshold>-2.6878696680068970e-01</stageThreshold>
      <weakClassifiers>
        <_>
          <internalNodes>
            0 -1 5 -705693729 -204474913 -191818759 1430491283
            -223354705 2072363919 1237243615 1598011887</internalNodes>
          <leafValues>
            -9.5943206548690796e-01 7.8861790895462036e-01</leafValues></_>
        <_>
          <internalNodes>
            0 -1 64 525013013 -804700032 -1870622255 -649084799
            1644823075 -2147352576 -503123269 -70929791</internalNodes>
          <leafValues>
            -9.4076645374298096e-01 6.9064509868621826e-01</leafValues></_></weakClassifiers></_>
    <!-- stage 3 -->
    <_>
      <maxWeakCount>2</maxWeakCount>
      <stageThreshold>-2.9237869381904602e-01</stageThreshold>
      <weakClassifiers>
        <_>
          <internalNodes>
            0 -1 40 -44173313 -715796159 -670509811 1373196351
            -368836849 -2127061489 -645666421 297004991</internalNodes>
          <leafValues>
            -9.4347828626632690e-01 7.3157894611358643e-01</leafValues></_>
        <_>
          <internalNodes>
            0 -1 1 -774507809 -720248674 33636691 1514508955 -795876757
            -358176703 -1060442209 1610609103</internalNodes>
          <leafValues>
            -8.6448818445205688e-01 6.5109956264495850e-01</leafValues></_></weakClassifiers></_>
    <!-- stage 4 -->
    <_>
      <maxWeakCount>3</maxWeakCount>
      <stageThreshold>-9.7605866193771362e-01</stageThreshold>
      <weakClassifiers>
        <_>
          <internalNodes>
            0 -1 48 -783439593 -738996159 -2147400385 -615526379
            -260009025 -510549792 269071291 2141417151</internalNodes>
          <leafValues>
            -9.0736842155456543e-01 7.3866665363311768e-01</leafValues></_>
        <_>
          <internalNodes>
            0 -1 67 -1525484169 -1874100201 268779585 -604311217
            -2111794811 -1941715625 -1587625913 -1145047041</internalNodes>
          <leafValues>
            -8.1517344713211060e-01 7.3854637145996094e-01</leafValues></_>
        <_>
          <internalNodes>
            0 -1 61 -2113797984 -788463616 1342177280 -804192255
            -1878884192 -2147483648 -1325227371 -208959352</internalNodes>
          <leafValues>
            -8.0723661184310913e-01 7.5193989276885986e-01</leafValues></_></weakClassifiers></_>
    <!-- stage 5 -->
    <_>
      <maxWeakCount>2</maxWeakCount>
      <stageThreshold>-1.7146788537502289e-01</stageThreshold>
      <weakClassifiers>
        <_>
          <internalNodes>
            0 -1 63 -1828253692 -1056833536 16 -787922944 -1073709055
            -1073741824 -503267190 -645291896</internalNodes>
          <leafValues>
            -8.8353413343429565e-01 7.6225048303604126e-01</leafValues></_>
        <_>
          <internalNodes>
            0 -1 13 -79736577 -212614967 1225114065 -753155900
            -1333194549 -637501246 -385193417 -70291343</internalNodes>
          <leafValues>
            -8.6645829677581787e-01 7.1206623315811157e-01</leafValues></_></weakClassifiers></_>
    <!-- stage 6 -->
    <_>
      <maxWeakCount>3</maxWeakCount>
      <stageThreshold>-9.3725669384002686e-01</stageThreshold>
      <weakClassifiers>
        <_>
          <internalNodes>
            0 -1 52 -1042577609 -952041097 285315549 -1849225974
            -937844079 -792166394 -1962689835 -1142226757</internalNodes>
          <leafValues>
            -8.0152672529220581e-01 7.6208180189132690e-01</leafValues></_>
        <_>
          <internalNodes>
            0 -1 18 33690367 -2142601046 -897232481 -6967036 488282271
            -71620469 -1994344309 -74802965</internalNodes>
          <leafValues>
            -8.5444146394729614e-01 6.3854026794433594e-01</leafValues></_>
        <_>
          <internalNodes>
            0 -1 53 -640686329 -607026809 -1576744235 -733932323
            -1190641413 -1464851807 406899643 -104762645</internalNodes>
          <leafValues>
            -7.2784501314163208e-01 7.1871149539947510e-01</leafValues></_></weakClassifiers></_>
    <!-- stage 7 -->
    <_>
      <maxWeakCount>3</maxWeakCount>
      <stageThreshold>-8.8025593757629395e-01</stageThreshold>
      <weakClassifiers>
        <_>
          <internalNodes>
            0 -1 20 679477501 -138346497 1073690587 1073700863
            -1379995905 -1348403040 -6 -22419272</internalNodes>
          <leafValues>
            -7.9861110448837280e-01 8.3984375000000000e-01</leafValues></_>
        <_>
          <internalNodes>
            0 -1 23 -1761294339 -33880683 -1318512169 -570613519
            -1476359797 -1382954524 -337315641 -808928380</internalNodes>
          <leafValues>
            -8.4356015920639038e-01 7.8919863700866699e-01</leafValues></_>
        <_>
          <internalNodes>
            0 -1 39 1898697212 -577123969 1905324535 -2385513 -261643587
            -653747808 -1414215681 -1081406577</internalNodes>
          <leafValues>
            -8.2038384675979614e-01 7.6191532611846924e-01</leafValues></_></weakClassifiers></_>
    <!-- stage 8 -->
    <_>
      <maxWeakCount>4</maxWeakCount>
      <stageThreshold>-4.2127525806427002e-01</stageThreshold>
      <weakClassifiers>
        <_>
          <internalNodes>
            0 -1 54 -124389117 -746552107 285317183 -45365231 1968225787
            -791554944 2080945035 2124839558</internalNodes>
          <leafValues>
            -9.0064793825149536e-01 7.1855759620666504e-01</leafValues></_>
        <_>
          <internalNodes>
            0 -1 33 -802055760 -1980394345 33642710 -1789848296
            -670520837 -1282366127 -913651206 -1880191493</internalNodes>
          <leafValues>
            -8.3294099569320679e-01 6.4972150325775146e-01</leafValues></_>
        <_>
          <internalNodes>
            0 -1 9 -1710064897 -1693448000 202410483 738722820
            -1423909906 1901627545 -1450144833 -1154954743</internalNodes>
          <leafValues>
            -7.3650491237640381e-01 6.4482015371322632e-01</leafValues></_>
        <_>
          <internalNodes>
            0 -1 56 -763243113 -763265020 17074321 1367671049 146837648
            -2013233152 276859535 -91597885</internalNodes>
          <leafValues>
            -6.8156003952026367e-01 6.6749352216720581e-01</leafValues></_></weakClassifiers></_>
    <!-- stage 9 -->
    <_>
      <maxWeakCount>4</maxWeakCount>
      <stageThreshold>-1.7511832714080811e+00</stageThreshold>
      <weakClassifiers>
        <_>
          <internalNodes>
            0 -1 59 -1320468713 -79091648 168333 -854705566 -79501317
            -125173618 -133965667 -34218843</internalNodes>
          <leafValues>
            -8.4708249568939209e-01 7.4433362483978271e-01</leafValues></_>
        <_>
          <internalNodes>
            0 -1 65 -1185808901 -582893547 -783862635 -539765949
            -1861617273 -1618370431 -1685850743 -1413752363</internalNodes>
          <leafValues>
            -7.4210005998611450e-01 7.8575026988983154e-01</leafValues></_>
        <_>
          <internalNodes>
            0 -1 34 1093234597 -162330217 1368487288 -639893089
            -1050030087 -1443067768 -888173672 -908129817</internalNodes>
          <leafValues>
            -9.0375632047653198e-01 6.0194307565689087e-01</leafValues></_>
        <_>
          <internalNodes>
            0 -1 70 -1219043425 -1215258468 -787101475 -1913035187
            -1970948711 -671022323 -1181493009 -1142500881</internalNodes>
          <leafValues>
            -7.8609478473663330e-01 7.0194673538208008e-01</leafValues></_></weakClassifiers></_>
    <!-- stage 10 -->
    <_>
      <maxWeakCount>4</maxWeakCount>
      <stageThreshold>-3.6029529571533203e-01</stageThreshold>
      <weakClassifiers>
        <_>
          <internalNodes>
            0 -1 16 -986031619 -158347368 1305149421 -123740040
            -611624197 -321339385 -90081007 -68200332</internalNodes>
          <leafValues>
            -8.4897959232330322e-01 7.3513513803482056e-01</leafValues></_>
        <_>
          <internalNodes>
            0 -1 35 -648910933 -45785091 -1656127521 -716360241
            215542767 -628001640 67170991 -1077931575</internalNodes>
          <leafValues>
            -8.5600072145462036e-01 6.4079880714416504e-01</leafValues></_>
        <_>
          <internalNodes>
            0 -1 15 311450879 -116374379 -717726279 2013293765 503919871
            -107306993 713127495 -3498053</internalNodes>
          <leafValues>
            -8.2903718948364258e-01 6.7495840787887573e-01</leafValues></_>
        <_>
          <internalNodes>
            0 -1 66 -41888554 -1886334692 1800094877 -2124955631
            -1807394805 1980795908 -1328162424 -1166161595</internalNodes>
          <leafValues>
            -8.2707291841506958e-01 6.8856161832809448e-01</leafValues></_></weakClassifiers></_>
    <!-- stage 11 -->
    <_>
      <maxWeakCount>5</maxWeakCount>
      <stageThreshold>-1.0385924577713013e+00</stageThreshold>
      <weakClassifiers>
        <_>
          <internalNodes>
            0 -1 29 -1117977089 1078219091 -922735536 -9809843
            -1866235425 -737959423 -2092846127 -1283409218</internalNodes>
          <leafValues>
            -7.4066799879074097e-01 7.1219062805175781e-01</leafValues></_>
        <_>
          <internalNodes>
            0 -1 68 -720023277 -2095905529 -2138046347 -1502227631
            -256792434 -149847886 1884880127 -1359088962</internalNodes>
          <leafValues>
            -7.6381897926330566e-01 6.3281410932540894e-01</leafValues></_>
        <_>
          <internalNodes>
            0 -1 10 -1085058821 -1127562814 -1862270713 -129662724
            -512616007 -794951679 -660243866 -269531328</internalNodes>
          <leafValues>
            -7.6165801286697388e-01 6.1349594593048096e-01</leafValues></_>
        <_>
          <internalNodes>
            0 -1 42 -955185683 -1073708985 1648907144 -1055844092
            -520052055 -1837070336 -526300102 -874183951</internalNodes>
          <leafValues>
            -7.5647193193435669e-01 6.0641527175903320e-01</leafValues></_>
        <_>
          <internalNodes>
            0 -1 24 423680975 -1647247150 295248093 -751238171
            -1063193886 -645101416 -1199537993 -359886588</internalNodes>
          <leafValues>
            -7.9459327459335327e-01 6.0887044668197632e-01</leafValues></_></weakClassifiers></_>
    <!-- stage 12 -->
    <_>
      <maxWeakCount>4</maxWeakCount>
      <stageThreshold>-1.5343433618545532e+00</stageThreshold>
      <weakClassifiers>
        <_>
          <internalNodes>
            0 -1 49 -633812041 -599699437 1140851007 1963280405
            -268390741 -176062133 -1534555765 2133535659</internalNodes>
          <leafValues>
            -8.3783781528472900e-01 6.6782009601593018e-01</leafValues></_>
        <_>
          <internalNodes>
            0 -1 25 -188621860 1498450047 16872319 -748993409 -754344993
            -130966879 572709711 -1081434866</internalNodes>
          <leafValues>
            -6.9907271862030029e-01 6.4862614870071411e-01</leafValues></_>
        <_>
          <internalNodes>
            0 -1 38 1401426909 -103059427 -1878734581 -182484903
            -670515457 -41286976 -343127157 -224603392</internalNodes>
          <leafValues>
            -7.5256621837615967e-01 6.1425393819808960e-01</leafValues></_>
        <_>
          <internalNodes>
            0 -1 28 942029020 -603938304 -1375661473 -49762281
            -1610594134 -268435320 -2105341206 -1429700288</internalNodes>
          <leafValues>
            -7.5052452087402344e-01 5.8391654491424561e-01</leafValues></_></weakClassifiers></_>
    <!-- stage 13 -->
    <_>
      <maxWeakCount>5</maxWeakCount>
      <stageThreshold>-9.1696077585220337e-01</stageThreshold>
      <weakClassifiers>
        <_>
          <internalNodes>
            0 -1 31 -37015 -81 -799791619 -2134161 -1635192963 -16014
            268078072 -536956945</internalNodes>
          <leafValues>
            -6.8738228082656860e-01 7.1562206745147705e-01</leafValues></_>
        <_>
          <internalNodes>
            0 -1 19 -658049437 -678850040 -804937647 -675622783
            1079497689 -1501392847 1222148281 247129751</internalNodes>
          <leafValues>
            -9.0005511045455933e-01 4.9777528643608093e-01</leafValues></_>
        <_>
          <internalNodes>
            0 -1 21 -54731521 -1079182082 805191679 -1879507475
            -21058817 -65537 -98305 -1074069505</internalNodes>
          <leafValues>
            -6.0481107234954834e-01 7.2618186473846436e-01</leafValues></_>
        <_>
          <internalNodes>
            0 -1 26 -1342049360 -796913536 830505082 1365103957
            -1308567063 -297751919 -636953654 -1079047537</internalNodes>
          <leafValues>
            -6.7736113071441650e-01 6.5194737911224365e-01</leafValues></_>
        <_>
          <internalNodes>
            0 -1 57 -254484737 -1828663228 -2096840657 -922623412
            268778442 -1341882359 -1019082594 734150815</internalNodes>
          <leafValues>
            -6.9560211896896362e-01 6.2165588140487671e-01</leafValues></_></weakClassifiers></_>
    <!-- stage 14 -->
    <_>
      <maxWeakCount>4</maxWeakCount>
      <stageThreshold>-4.4275429844856262e-01</stageThreshold>
      <weakClassifiers>
        <_>
          <internalNodes>
            0 -1 50 -1343279297 -269500609 -1360007169 -8409153
            -814262281 -276824201 1601654775 -1921556609</internalNodes>
          <leafValues>
            -6.8060839176177979e-01 7.0577281713485718e-01</leafValues></_>
        <_>
          <internalNodes>
            0 -1 7 -1517223945 -1257377426 -1861983245 -582425452
            -2146308315 -2002777792 -91474033 2141873146</internalNodes>
          <leafValues>
            -8.2796353101730347e-01 5.5635440349578857e-01</leafValues></_>
        <_>
          <internalNodes>
            0 -1 69 1813201935 -485363025 -1726975669 -174214503
            1896428186 -508599421 -1230686049 -1429539585</internalNodes>
          <leafValues>
            -7.1252250671386719e-01 5.9259045124053955e-01</leafValues></_>
        <_>
          <internalNodes>
            0 -1 41 -1465250561 -711960185 1073779222 -666894336
            -805211711 822165632 -268435456 2041174144</internalNodes>
          <leafValues>
            -8.6365592479705811e-01 4.7322717308998108e-01</leafValues></_></weakClassifiers></_>
    <!-- stage 15 -->
    <_>
      <maxWeakCount>4</maxWeakCount>
      <stageThreshold>-5.1468437910079956e-01</stageThreshold>
      <weakClassifiers>
        <_>
          <internalNodes>
            0 -1 43 -185080413 -36374051 1560654085 -639924955
            -251536133 -726654816 2038474155 1564570546</internalNodes>
          <leafValues>
            -7.4885845184326172e-01 6.2650603055953979e-01</leafValues></_>
        <_>
          <internalNodes>
            0 -1 8 479744223 -1031330560 700940522 -649853440 531783147
            -133692800 1856665479 -28424051</internalNodes>
          <leafValues>
            -7.8080493211746216e-01 5.3956401348114014e-01</leafValues></_>
        <_>
          <internalNodes>
            0 -1 60 -1847609049 -1853255574 -788469281 2043773407
            -252822830 -49147638 -511141749 -444235584</internalNodes>
          <leafValues>
            -7.5354492664337158e-01 5.2109801769256592e-01</leafValues></_>
        <_>
          <internalNodes>
            0 -1 30 -253586642 -1047981325 1962939698 -242211869
            -1014713833 268735397 -226457093 1206887659</internalNodes>
          <leafValues>
            -7.9498404264450073e-01 4.9388101696968079e-01</leafValues></_></weakClassifiers></_>
    <!-- stage 16 -->
    <_>
      <maxWeakCount>5</maxWeakCount>
      <stageThreshold>-1.1558133363723755e+00</stageThreshold>
      <weakClassifiers>
        <_>
          <internalNodes>
            0 -1 51 -1244417027 -1746784107 -2062200827 -2066135995
            -1412087656 -1753100253 -1336358255 -1145112364</internalNodes>
          <leafValues>
            -7.2268909215927124e-01 6.6192167997360229e-01</leafValues></_>
        <_>
          <internalNodes>
            0 -1 11 -32748329 -1186016039 1225818465 1405517862
            -1065272581 -1299545918 -1094756313 -74484923</internalNodes>
          <leafValues>
            -7.6226854324340820e-01 5.3742730617523193e-01</leafValues></_>
        <_>
          <internalNodes>
            0 -1 45 -139979272 -1311734691 -1852763875 -1487982131
            -771749667 -861921268 1250469547 -1138746694</internalNodes>
          <leafValues>
            -7.5656652450561523e-01 4.9743404984474182e-01</leafValues></_>
        <_>
          <internalNodes>
            0 -1 44 1426314492 -2129592186 84476464 -1989603311
            -929511270 -939491160 1082741250 2064655517</internalNodes>
          <leafValues>
            -7.9781270027160645e-01 4.9571776390075684e-01</leafValues></_>
        <_>
          <internalNodes>
            0 -1 47 -1852755619 -784527103 -1320954439 -174288615
            688074074 -108309854 1284245882 -119348552</internalNodes>
          <leafValues>
            -6.8548947572708130e-01 5.8382761478424072e-01</leafValues></_></weakClassifiers></_>
    <!-- stage 17 -->
    <_>
      <maxWeakCount>5</maxWeakCount>
      <stageThreshold>-1.0323380231857300e+00</stageThreshold>
      <weakClassifiers>
        <_>
          <internalNodes>
            0 -1 36 1460135401 1607847955 -535260787 1078548624
            -225725507 -1701188304 1363397390 1548761369</internalNodes>
          <leafValues>
            -7.7565634250640869e-01 6.1388653516769409e-01</leafValues></_>
        <_>
          <internalNodes>
            0 -1 17 -2011957350 -800825472 536890855 -37707309
            -2105344766 -1332691971 1778448010 1609504159</internalNodes>
          <leafValues>
            -8.9587306976318359e-01 4.3152934312820435e-01</leafValues></_>
        <_>
          <internalNodes>
            0 -1 2 -78719526 -2079768032 -1610415789 -330932224
            -1878320618 -1047985664 1510080746 -150320390</internalNodes>
          <leafValues>
            -6.6560351848602295e-01 5.8031362295150757e-01</leafValues></_>
        <_>
          <internalNodes>
            0 -1 58 -794624257 -222777799 -33562627 -1562050561
            531656698 -1073774593 -268499513 -67403777</internalNodes>
          <leafValues>
            -5.7657235860824585e-01 6.7797815799713135e-01</leafValues></_>
        <_>
          <internalNodes>
            0 -1 12 315646847 1061503003 4227141 1895907621 16840139
            -214726643 1539442842 -6255332</internalNodes>
          <leafValues>
            -7.0058572292327881e-01 5.5480980873107910e-01</leafValues></_></weakClassifiers></_>
    <!-- stage 18 -->
    <_>
      <maxWeakCount>4</maxWeakCount>
      <stageThreshold>-4.7971937060356140e-01</stageThreshold>
      <weakClassifiers>
        <_>
          <internalNodes>
            0 -1 27 1435725230 -804231925 -796265990 -168807853
            -1023401561 -792665918 -1068396653 -1027403843</internalNodes>
          <leafValues>
            -8.1170481443405151e-01 5.9569180011749268e-01</leafValues></_>
        <_>
          <internalNodes>
            0 -1 46 -2129419329 5308432 -1828651649 -2116217485
            -2004815263 -1174384638 -1433358332 -1881218503</internalNodes>
          <leafValues>
            -7.5843119621276855e-01 5.2132332324981689e-01</leafValues></_>
        <_>
          <internalNodes>
            0 -1 71 -791591841 597923187 1933652371 -317754799
            -263480214 -1840246263 -255659069 -1497892342</internalNodes>
          <leafValues>
            -6.6035884618759155e-01 5.8702415227890015e-01</leafValues></_>
        <_>
          <internalNodes>
            0 -1 22 -2066320225 -1354092536 51769354 406732856
            -1601853257 -397890657 -1709304693 -2004581224</internalNodes>
          <leafValues>
            -7.7636206150054932e-01 5.0578570365905762e-01</leafValues></_></weakClassifiers></_>
    <!-- stage 19 -->
    <_>
      <maxWeakCount>5</maxWeakCount>
      <stageThreshold>-9.9755525588989258e-01</stageThreshold>
      <weakClassifiers>
        <_>
          <internalNodes>
            0 -1 14 808959 -259221295 -1870298940 281018819 1015900699
            -74905908 505967395 -120919506</internalNodes>
          <leafValues>
            -7.4407583475112915e-01 6.0611206293106079e-01</leafValues></_>
        <_>
          <internalNodes>
            0 -1 32 -654518786 1367392320 797257279 -1391099887
            1216377402 -637533696 100962971 -74571767</internalNodes>
          <leafValues>
            -6.1667436361312866e-01 6.3367342948913574e-01</leafValues></_>
        <_>
          <internalNodes>
            0 -1 55 -523032216 -238448636 1946276189 -653770495
            562044513 -1038170109 2141780480 -91569679</internalNodes>
          <leafValues>
            -9.1528326272964478e-01 4.1732349991798401e-01</leafValues></_>
        <_>
          <internalNodes>
            0 -1 62 -185021313 -249240930 -795869111 -738164608 77088503
            -922582816 851716238 713181739</internalNodes>
          <leafValues>
            -6.8120324611663818e-01 5.5551439523696899e-01</leafValues></_>
        <_>
          <internalNodes>
            0 -1 3 675479263 1485869328 -1072904878 -1069330322
            -2139078481 -2000650238 -1206488077 -7731989</internalNodes>
          <leafValues>
            -6.0419338941574097e-01 6.2707465887069702e-01</leafValues></_></weakClassifiers></_></stages>
  <features>
    <_>
      <rect>
        0 3 20 9</rect></_>
    <_>
      <rect>
        2 4 17 11</rect></_>
    <_>
      <rect>
        2 10 5 6</rect></_>
    <_>
      <rect>
        3 16 6 4</rect></_>
    <_>
      <rect>
        4 11 16 6</rect></_>
    <_>
      <rect>
        5 10 17 7</rect></_>
    <_>
      <rect>
        6 10 16 6</rect></_>
    <_>
      <rect>
        6 11 11 5</rect></_>
    <_>
      <rect>
        6 18 7 5</rect></_>
    <_>
      <rect>
        9 24 10 5</rect></_>
    <_>
      <rect>
        10 14 3 3</rect></_>
    <_>
      <rect>
        10 16 4 3</rect></_>
    <_>
      <rect>
        10 22 6 6</rect></_>
    <_>
      <rect>
        11 14 4 4</rect></_>
    <_>
      <rect>
        11 20 4 2</rect></_>
    <_>
      <rect>
        12 21 4 3</rect></_>
    <_>
      <rect>
        13 9 3 6</rect></_>
    <_>
      <rect>
        14 10 7 5</rect></_>
    <_>
      <rect>
        14 20 11 6</rect></_>
    <_>
      <rect>
        16 5 12 11</rect></_>
    <_>
      <rect>
        16 16 8 6</rect></_>
    <_>
      <rect>
        19 21 8 4</rect></_>
    <_>
      <rect>
        19 26 5 3</rect></_>
    <_>
      <rect>
        20 7 4 4</rect></_>
    <_>
      <rect>
        20 11 4 2</rect></_>
    <_>
      <rect>
        20 11 6 4</rect></_>
    <_>
      <rect>
        20 14 6 3</rect></_>
    <_>
      <rect>
        20 15 5 3</rect></_>
    <_>
      <rect>
        20 23 6 3</rect></_>
    <_>
      <rect>
        21 10 4 8</rect></_>
    <_>
      <rect>
        21 14 4 3</rect></_>
    <_>
      <rect>
        21 17 5 2</rect></_>
    <_>
      <rect>
        21 21 5 3</rect></_>
    <_>
      <rect>
        22 14 4 3</rect></_>
    <_>
      <rect>
        22 15 4 3</rect></_>
    <_>
      <rect>
        22 16 5 3</rect></_>
    <_>
      <rect>
        22 17 5 2</rect></_>
    <_>
      <rect>
        22 18 4 2</rect></_>
    <_>
      <rect>
        23 7 4 3</rect></_>
    <_>
      <rect>
        23 10 4 5</rect></_>
    <_>
      <rect>
        23 12 8 4</rect></_>
    <_>
      <rect>
        23 16 6 5</rect></_>
    <_>
      <rect>
        23 17 3 2</rect></_>
    <_>
      <rect>
        23 17 5 2</rect></_>
    <_>
      <rect>
        23 21 4 2</rect></_>
    <_>
      <rect>
        23 22 3 3</rect></_>
    <_>
      <rect>
        24 18 3 1</rect></_>
    <_>
      <rect>
        25 3 10 4</rect></_>
    <_>
      <rect>
        25 15 4 3</rect></_>
    <_>
      <rect>
        25 16 4 2</rect></_>
    <_>
      <rect>
        25 18 3 1</rect></_>
    <_>
      <rect>
        26 7 10 7</rect></_>
    <_>
      <rect>
        26 15 2 3</rect></_>
    <_>
      <rect>
        26 16 3 3</rect></_>
    <_>
      <rect>
        26 17 3 2</rect></_>
    <_>
      <rect>
        26 19 2 1</rect></_>
    <_>
      <rect>
        27 17 2 2</rect></_>
    <_>
      <rect>
        27 20 3 3</rect></_>
    <_>
      <rect>
        27 21 3 2</rect></_>
    <_>
      <rect>
        28 18 2 2</rect></_>
    <_>
      <rect>
        28 19 2 1</rect></_>
    <_>
      <rect>
        28 20 1 1</rect></_>
    <_>
      <rect>
        28 20 3 2</rect></_>
    <_>
      <rect>
        29 18 1 2</rect></_>
    <_>
      <rect>
        29 19 1 1</rect></_>
    <_>
      <rect>
        30 4 7 9</rect></_>
    <_>
      <rect>
        30 11 8 6</rect></_>
    <_>
      <rect>
        33 0 5 12</rect></_>
    <_>
      <rect>
        33 11 7 4</rect></_>
    <_>
      <rect>
        34 2 8 8</rect></_>
    <_>
      <rect>
        34 8 7 9</rect></_>
    <_>
      <rect>
        36 8 6 5</rect></_></features></cascade>
</opencv_storage>
